{
  "weights": {
    "net.0.weight": [
      [
        0.9733841454156519,
        -0.923682634752272,
        0.13615899630253275,
        -0.022962117670009222,
        -0.2561645429460681,
        -0.557754904790926
      ],
      [
        -1.1618694617754373,
        0.31626584960431514,
        0.19815294016732765,
        -0.3807807531858832,
        -0.3957497684407512,
        -0.6258041499604964
      ],
      [
        0.3879361537067863,
        0.028552055449963417,
        -0.2898029434510251,
        -0.22543707742058763,
        -0.28758935050715745,
        0.23307814551102146
      ],
      [
        -0.6058082505118182,
        0.2153312942943755,
        0.3074614616237265,
        0.1774862972904089,
        0.2029125383374087,
        -0.35337178618584525
      ],
      [
        -0.1688427746386982,
        0.3980869535014223,
        -0.04693409739762463,
        0.3382246459512377,
        0.36450906112454373,
        0.3270097219684799
      ],
      [
        -0.16967573469801972,
        -0.10935707311885028,
        0.951928552932802,
        0.005552778291866424,
        -0.366174719113622,
        -0.7220427334915497
      ],
      [
        0.37117002939700333,
        0.35550729770780254,
        0.27969440109349186,
        0.341179540505715,
        0.25390591064167983,
        -0.25792200948842053
      ],
      [
        -0.12184105783068153,
        -1.4378858584874579,
        -0.04020983237772486,
        0.25279571357821434,
        0.08395269534589507,
        -0.2799595581620667
      ],
      [
        0.4536683214566021,
        -0.7648014045068438,
        -0.09441547957963278,
        0.37914791156475763,
        0.07168109190592595,
        -0.35344064313377743
      ],
      [
        -0.5726184520316432,
        0.5959986510537749,
        -0.4262901838782041,
        -0.2619361645905137,
        0.20439354226708756,
        -0.6037026199474502
      ],
      [
        0.5733968536931173,
        -0.05845604057881645,
        -0.4004091505382431,
        0.3344696257949198,
        -0.3835221432752865,
        0.46427235424023033
      ],
      [
        -0.17729507314056575,
        0.8489737956835308,
        -0.5445637309058255,
        -0.3535456384745349,
        -0.14741443718996947,
        0.480383836235057
      ],
      [
        0.985847426692804,
        0.39163122969270936,
        -0.4229974416198325,
        -0.15903106548115006,
        0.2072730225956352,
        0.26914096602157056
      ],
      [
        0.46689675240702344,
        -0.5923303403374007,
        -0.17581877767621001,
        0.2889432975714996,
        0.055950575347871886,
        -0.2773679690387782
      ],
      [
        0.41567061664869326,
        -0.25949327986619053,
        -0.5019663839933038,
        0.18280171407322315,
        -0.25851611123426926,
        -0.3656231020271392
      ],
      [
        -0.26463222156091043,
        -1.2283783669307404,
        -0.14910694597958135,
        -0.32820446144884324,
        0.15938814211484134,
        0.009520819066725583
      ],
      [
        -0.18699159850762592,
        0.24480956411731603,
        -0.39988164701739537,
        0.14586866753285394,
        0.07520463682630041,
        0.5887930158236895
      ],
      [
        -0.009052069452492388,
        0.7262496673651886,
        -0.6244966159003482,
        -0.4574578830941525,
        -0.18676504689055634,
        0.7416682530237371
      ],
      [
        -0.2197330999403927,
        -0.09259862137539024,
        0.942749487220332,
        -0.021381358441577857,
        -0.27074470173526505,
        0.3762132017797603
      ],
      [
        0.18845222434233394,
        -0.612276069218577,
        0.5732713458464044,
        0.17498094091059052,
        -0.09136077810583738,
        -0.2778181219845627
      ],
      [
        0.9625573696868732,
        -0.049896635149827576,
        -0.6376823519917121,
        -0.009241656922120483,
        0.10313131195594004,
        -0.17384026927534124
      ],
      [
        -1.006299879705011,
        -1.2663001353993701,
        -0.34638008465438086,
        -0.1546115082093417,
        0.059938796954388605,
        -0.033730586932520526
      ],
      [
        -0.7394657887686168,
        -0.20989835645804883,
        -0.5008624325480041,
        0.10549934063095082,
        -0.007837208483767576,
        0.12473593932200071
      ],
      [
        -0.01607457638527285,
        0.6701528340147855,
        0.17783571144746202,
        0.3540214952780386,
        -0.055167966004718696,
        -0.4305693884536368
      ],
      [
        -0.12482573026133888,
        -0.39910852194281937,
        -0.4514067218690303,
        0.30435188422185644,
        -0.11503086683790324,
        -0.13305852562441337
      ],
      [
        -0.217010264100171,
        0.05858800452864544,
        0.33603657505379,
        0.08547115627368516,
        -0.41240791768739193,
        -0.39092890719289536
      ],
      [
        -0.7932139332035337,
        -0.9684154459593,
        0.697297414341773,
        -0.08965922891425494,
        -0.12204245082796164,
        0.2378039637209107
      ],
      [
        0.5870910813634868,
        0.5585368908680093,
        0.025882622819859345,
        -0.10063204761603205,
        0.03281399202933531,
        -0.23855608301838185
      ],
      [
        0.4660025221594389,
        -0.8976262622902301,
        -0.42763802740564705,
        0.15520073425302017,
        0.011176862035272087,
        0.22759488838092237
      ],
      [
        0.34445657774286387,
        -0.18287281394297747,
        0.564516269772082,
        -0.08881271332497566,
        0.07294090110734082,
        -0.32088877953598494
      ],
      [
        -0.5780977779161428,
        0.21329109713171315,
        -0.32874399463551085,
        -0.300997396662815,
        -0.22732604718615745,
        0.09711605871970205
      ],
      [
        -0.3974363639948047,
        -0.524121872462902,
        0.05215553462669084,
        -0.3732453559637218,
        -0.42282544760521784,
        0.07913512880424073
      ],
      [
        0.0753192214454756,
        -0.9677141397753154,
        -0.13217968557760829,
        0.30071319408616315,
        -0.09563862374410366,
        0.3060042719779229
      ],
      [
        -0.5033213286679181,
        -0.385006517596101,
        -0.10775567804025586,
        -0.237827140699189,
        -0.327011014801751,
        0.3500077885082725
      ],
      [
        0.424782847483411,
        -0.8749464516190135,
        0.09239276544274835,
        -0.018105726675991758,
        0.36237034724682926,
        -0.2703980492175138
      ],
      [
        -1.149239642885157,
        1.4099720565067249,
        -0.6308470593251919,
        -0.29167843902259105,
        -0.1307586277935101,
        -0.7262202407395629
      ],
      [
        -0.3803034885531093,
        0.8646453396547251,
        0.575315654948595,
        -0.12798395593079775,
        -0.28459382567182834,
        -0.0981914068499616
      ],
      [
        0.0005072224092918774,
        1.0227350881626698,
        0.8849162346992963,
        0.3544172735483757,
        0.2272937379821513,
        0.29858726036219047
      ],
      [
        -0.6421139839838841,
        0.17440655556894044,
        0.1107244483876919,
        -0.3759124716460834,
        -0.08185730986549654,
        0.5495453762396243
      ],
      [
        -0.250671856662468,
        -0.004947559890633275,
        0.4072947925441885,
        -0.07364671600885604,
        -0.4764157273737301,
        0.1500311012880737
      ],
      [
        0.9830200747898894,
        -0.5535176696181344,
        -0.13660476427933171,
        -0.3192501133766733,
        0.2561481319675255,
        0.29935876029579844
      ],
      [
        0.47776971394265966,
        -0.8669363631671945,
        -0.46558503220096586,
        0.18983880055881258,
        -0.3849729203354369,
        -0.09004940256554307
      ],
      [
        -0.16700771009048943,
        0.752670166809006,
        0.43135654924383476,
        0.2232088660938551,
        -0.12364522646851728,
        -0.2636700575145868
      ],
      [
        0.03537327563477475,
        0.7192349533759468,
        -0.27280832241798414,
        0.3008606617522874,
        0.18605919270342205,
        0.17886886375866445
      ],
      [
        -0.8389858650662707,
        -1.0759904794338202,
        0.4172881345170968,
        0.4173358186238408,
        0.22731501442460833,
        0.32869875719984365
      ],
      [
        1.2333521141111243,
        -0.03408077818664859,
        0.0013592837783582314,
        -0.46404007429528565,
        -0.3628339982315263,
        -0.3440150271361282
      ],
      [
        -0.10853495326678053,
        -1.2896704139225519,
        0.4857228314591638,
        -0.29557205265449543,
        0.16819250192807392,
        -0.06265200632810242
      ],
      [
        0.2848475251244484,
        0.2069510146744408,
        -0.047443086700248535,
        -0.30614169747904535,
        -0.3718176163711023,
        -0.5572425258498204
      ],
      [
        -0.03714003522377671,
        -1.5542914845908566,
        0.19051716542085434,
        0.2319794606433202,
        -0.2039040737018303,
        -0.14230400900973036
      ],
      [
        0.0823477975079723,
        -0.3389589707585754,
        0.33801941886522324,
        0.07009321483880061,
        -0.4599662568376302,
        0.26362238756167633
      ],
      [
        0.8414452301504278,
        -1.0068025482099472,
        -0.09919982324826823,
        -0.4215236866055899,
        0.09088965789382919,
        -0.1571911177129375
      ],
      [
        -2.076356790983066,
        1.105083953633107,
        -0.9107350947794949,
        -0.2096816215169171,
        0.3459977231611444,
        0.45014816805937036
      ],
      [
        0.3856199897249873,
        -1.2275667376318862,
        0.617122777651611,
        -0.4458244432477333,
        -0.20678277716416063,
        0.4052744376524508
      ],
      [
        -0.9880010208532838,
        0.24183804241401066,
        0.6090624187389396,
        0.30840882185426555,
        0.19382174321547604,
        0.13048195293100137
      ],
      [
        -0.12086533624329883,
        0.39883763599867655,
        -0.4332941435045162,
        0.16213634454380482,
        0.3394597170877667,
        0.12487831333486
      ],
      [
        0.8677364022836906,
        0.3316828808369389,
        -1.1665065332869318,
        0.012827502927309675,
        -0.6431498828218782,
        0.04762582576966456
      ],
      [
        0.080755111450165,
        -0.10238577799482132,
        0.5977307487411598,
        0.04662810061520667,
        -0.5785965623644491,
        -0.2950475443510517
      ],
      [
        0.3350685569867652,
        -0.4640399229470659,
        0.6817453496305587,
        0.4327921332450127,
        0.1791082087247634,
        -0.22014549397755218
      ],
      [
        0.4733527017962643,
        1.8226959442501252,
        -0.3785807368835189,
        0.3597115882965805,
        0.1952178845509014,
        -0.30297181943723517
      ],
      [
        0.004546567044259924,
        -0.7854472392600006,
        0.5452720104547053,
        -0.205908755624648,
        -0.3653904728257526,
        0.4525693559044103
      ],
      [
        0.8158263324762453,
        -0.9852014313622423,
        0.20678574822508844,
        0.07022742797638665,
        -0.34846411249246967,
        0.0017827811400254188
      ],
      [
        0.7858178396961762,
        0.9004974968431787,
        0.3857408240614602,
        -0.3387784280760669,
        0.048519620552521944,
        -0.20050078989126477
      ],
      [
        0.048223069282214016,
        -0.3208568340007652,
        0.7199984320898293,
        0.006646421875082518,
        0.08561291342473035,
        0.04054741552766368
      ],
      [
        -0.4691809494110711,
        -0.1968669638813777,
        -1.2183180667305695,
        -0.18074769041417685,
        0.3389623765449648,
        0.1570188208073687
      ]
    ],
    "net.0.bias": [
      -0.12462771457128284,
      0.05299839033937602,
      -0.23604226440810128,
      0.422173154971058,
      0.2765757465361388,
      -0.26077749881960854,
      0.2608735259881082,
      -0.067514021594303,
      0.23517710880180515,
      0.37830384241683024,
      -0.18614738054660893,
      0.4724818448849322,
      -0.5369735210754499,
      -0.1765984362826773,
      0.3358226631278138,
      0.11427379617547183,
      -0.182451080474378,
      0.3072271366201502,
      0.3265298680214122,
      -0.17881657378686305,
      -0.1901753543349015,
      0.3123883079232011,
      0.28112010588066455,
      -0.35882199342284493,
      -0.3813690961207126,
      0.030255698968957877,
      -0.08040753525477498,
      0.39514205483797094,
      -0.32143559091819507,
      -0.056694659694441575,
      0.4131941280945859,
      0.2554942886151111,
      -0.0431397044265542,
      0.3372394931335955,
      0.3739903405194233,
      -0.18197825945133805,
      -0.3426616475035201,
      -0.06494626581078176,
      0.029310840876040294,
      0.14268088451309366,
      -0.1499479186493459,
      -0.10288866485703216,
      0.3682870261195777,
      -0.3221519650028908,
      0.19850718917718424,
      -0.38953669413386444,
      -0.35729530311092256,
      0.5696834142402214,
      -0.10683722418865252,
      -0.2559178272675557,
      -0.10107825622754257,
      -0.5725879800722867,
      0.13197534579735778,
      -0.22230176861664036,
      -0.26369830805834604,
      0.3301714964665356,
      -0.1525192099185504,
      -0.3661609793184749,
      0.10210451708557049,
      0.42822239040191484,
      -0.03817049631989989,
      -0.4127920180644768,
      0.31446941176666293,
      -0.3859748366017693
    ],
    "net.2.weight": [
      [
        0.3727468290931596,
        0.12802747193802083,
        0.13993515619711164,
        0.03815591893942863,
        -0.11131415269336807,
        -0.3215532187781859,
        -0.06746422724759962,
        0.888959713569446,
        -0.14393967479399838,
        0.26651577033131707,
        -1.1701482101626084,
        0.025773245543145647,
        0.10822703256280067,
        -0.06034279406182824,
        0.13109579650048278,
        0.08187337295514824,
        -1.6757362705773549,
        -0.003444458786212006,
        -0.6677089682903372,
        -0.06294988086317788,
        -0.5068191427828769,
        0.13642452425731982,
        0.253938569917455,
        0.2130243451292946,
        -0.6311087449229721,
        0.11469601150566705,
        0.1607827396741812,
        0.12927282136282878,
        -2.202008944294813,
        0.03279214662543038,
        0.05479100297896967,
        0.01546086923611797,
        0.29831340314360444,
        0.10130546010139106,
        0.07177209058453131,
        -0.13471628006475456,
        -0.10390200381157713,
        -1.4100353288558476,
        -0.12221301336755207,
        -0.21448221190847774,
        0.10601151793928447,
        0.27261827826917145,
        0.18566009218066712,
        -0.24785993173771032,
        1.1698466912628398,
        0.058806236704364155,
        0.1759486312103244,
        0.20953235771333426,
        -0.15654425061949923,
        0.10035741635568184,
        -0.14674586839469447,
        -0.35797000752816277,
        0.16560684716578902,
        -0.3209744053819381,
        -0.25362022673915674,
        -0.25841841226972945,
        0.039222810023580315,
        -0.17278163982239153,
        -0.23326496713255998,
        0.05435632540597547,
        -0.41036543990551344,
        0.1582490887943758,
        -0.13774998831389995,
        0.07815926423893273
      ],
      [
        0.160820818111011,
        -0.2107808184760152,
        -0.011947761633840145,
        0.11095694539892702,
        -0.00830354586757256,
        0.0701640455978693,
        0.10664191413028856,
        0.08610698907828605,
        0.08716683767048923,
        0.1258105340156677,
        -0.04736139298830362,
        0.12149328282461772,
        -0.045257408661320206,
        -0.11529656236503236,
        -0.003620951834295473,
        -0.042825116665069406,
        0.1224855307899115,
        -0.025105366909482847,
        0.020319567748212728,
        -0.01839665932462724,
        0.05328389346010232,
        -0.11121466316121643,
        0.05643202454260888,
        0.04691503152256909,
        0.08496946363744508,
        -0.23183697172801082,
        -0.1505847332979619,
        0.06496891908739606,
        -0.09394403744926326,
        -0.0502196400853474,
        0.03421697407735726,
        0.07975458015798238,
        -0.051642473674391516,
        0.0031422471185059606,
        0.0401182912898058,
        -0.6668856383582552,
        -0.31060261330950295,
        0.0002115418962351714,
        -0.09740729893980694,
        -0.0996748285691758,
        -0.16200756529551671,
        -0.10697991449106486,
        -0.06602845051391762,
        0.0875826140840994,
        0.049604820324209556,
        0.6197907444016946,
        -0.1480650810229493,
        -0.1463946562128227,
        -0.016290835475941134,
        -0.013407596995199791,
        0.011076390235463942,
        0.02699039480090503,
        0.050751481995802705,
        -0.02588500265845144,
        0.017662209607877545,
        0.15306233377887396,
        0.11260215020510604,
        0.08591871851729484,
        -0.030824671630207853,
        0.06976894813485977,
        -0.09894000241721862,
        0.1283532076162445,
        -0.041462261805188694,
        0.061012691030336894
      ],
      [
        0.0737215643612155,
        -0.041784998741473865,
        0.0007136780371894852,
        -0.0008213117468956897,
        -0.003839551541266963,
        0.0014416327508481924,
        0.08994453006731998,
        0.0054832799403653895,
        0.11049705623478677,
        0.03301634505686472,
        0.02014271468816832,
        0.08141258539009912,
        -0.012134823021209197,
        -0.07902576790644614,
        -0.052161079980900554,
        0.04670929140523131,
        0.1020692042334584,
        -0.0764946955838411,
        0.007511295675233465,
        -0.09810334574825837,
        -0.0012653454879650527,
        -0.03697815263722394,
        0.016449673771878424,
        -0.07170182357850667,
        0.014433745927952957,
        -0.07285694369962667,
        0.0611817008347637,
        0.14814110723499185,
        0.07842332228834913,
        0.1019242996694202,
        -0.11600236002048502,
        0.10590962229235538,
        0.055314453654765394,
        0.0859024047374441,
        0.0685666832979089,
        -0.3943293782377279,
        0.003957670620732444,
        -0.03743109224631963,
        -0.13408292017644347,
        0.048625561600121735,
        -0.023810979178104378,
        -0.048912916320039544,
        0.09189235404372204,
        -0.036571033822306045,
        0.09170649996936432,
        -0.11658653958662124,
        0.040781745578103545,
        -0.005578068756180557,
        -0.06217188193074084,
        -0.043322823420566314,
        -0.09257176866186248,
        0.037148184866438366,
        -0.009165587876443804,
        0.07321011013880135,
        -0.06830050940180585,
        0.010813778862068366,
        0.07619304897096085,
        0.01650207781171432,
        0.09662430449840388,
        0.006955632850786263,
        -0.042982835584313706,
        0.14002854047345056,
        -0.021739013225543072,
        0.03109293084740007
      ],
      [
        -0.29630090730962033,
        0.10754456905464273,
        0.03274816631972461,
        0.06144090996277274,
        0.09156521436731968,
        0.27974008422554686,
        0.008204827547076254,
        0.08698636254883753,
        -0.004130434252636493,
        0.1017008028880734,
        -0.09969249143294286,
        -0.05360048715155857,
        0.04879832623074783,
        -0.11486640736935055,
        -0.01647248559061574,
        0.08569576197068901,
        0.05751037855179033,
        0.018398933332946715,
        0.05834794784292402,
        -0.14440638053745755,
        -0.16904813522748285,
        -0.07660988310615183,
        0.06436689495433959,
        0.05791611583536835,
        0.09554516041505173,
        -0.10623479265684789,
        -0.3320200008898654,
        0.016457116100376215,
        -0.07601698266988625,
        0.0068984212006963485,
        0.08584624803099815,
        0.1017379655628328,
        0.023028541691492165,
        -0.005563565082056464,
        -0.02691866748190147,
        -0.03640841565685233,
        -0.21903776339715797,
        0.08729563268872068,
        0.46290097141040387,
        -0.01027297648218034,
        0.012003488644777995,
        -0.08246398751460289,
        0.09917499142294033,
        -0.10711890109629005,
        -0.06253255878459812,
        -0.6488834514467505,
        -0.14425348142005645,
        -0.06329732860356124,
        0.07918304109826853,
        0.011250182089040179,
        -0.0032319784736740357,
        0.11776975777747169,
        0.07622725928082087,
        -0.0032927121759389745,
        -0.11284828935987988,
        -0.037061308978522056,
        0.01150838560046486,
        -0.11603020294162818,
        0.11909527279792724,
        0.1456653279213567,
        0.09879438956505333,
        -0.174492406567401,
        0.15088946128295253,
        0.00448739276530229
      ],
      [
        0.09985712376327842,
        -0.01995078079431943,
        0.09378935562351703,
        0.07709385843559459,
        0.12488413594433836,
        0.08242717496520599,
        -0.010114312029237169,
        0.00610976164778462,
        0.05691224575030012,
        -0.07495156138777584,
        0.007140096622780585,
        0.05443064415169201,
        -0.10350059897802721,
        0.05817511874157942,
        0.10316378068329246,
        0.10777399608616779,
        -0.1261339394369786,
        0.16063574034490466,
        -0.08412053910338152,
        0.1160099620654236,
        0.1685495289196001,
        0.013948765536342129,
        -0.01340217313631531,
        0.06940859032938239,
        0.12472112184533922,
        -0.09126038376356983,
        -0.23094895363714488,
        0.10200089555497233,
        -0.06584243246939048,
        -0.07334654114916621,
        -0.1216762805650999,
        -0.08321565961659214,
        0.0726114592528138,
        -0.07002124260934314,
        0.09686909859305168,
        -0.4873614276077391,
        0.05871164438817994,
        -0.06677612634831656,
        -1.6977964059843995,
        0.041448152991002844,
        -0.1270224961918115,
        0.11339598457608842,
        -0.0005945134491310492,
        0.012572078494927754,
        0.05929261044264476,
        -0.07307983799126165,
        0.27473877454991313,
        -0.030019914444111912,
        0.08480031345861062,
        -0.05245001965996569,
        -0.16445416272037897,
        -0.099680138113018,
        -0.07190412696565796,
        0.09819622837640683,
        0.028097383386000725,
        0.1526008299375225,
        0.03718698420224323,
        0.0023420782381752513,
        -0.11433007324554811,
        -0.005818075772484219,
        -0.15252617318449382,
        0.3151204782913362,
        -0.07528145331930125,
        -0.08099345183705002
      ],
      [
        -0.0677784433035853,
        0.11291179149046389,
        0.10633904492750615,
        0.0666152235085217,
        -0.04081833919216379,
        0.03123096519867665,
        -0.12241084643643557,
        0.09349429060941723,
        -0.01895318861100457,
        -0.10465061228304345,
        -0.012284500437803181,
        0.09152426481949962,
        -0.10091194385016873,
        0.08895107803533733,
        0.04986935349942703,
        0.07118274178902663,
        -0.11317289387397661,
        0.05671781730062445,
        0.10032795360551384,
        0.017807935312382037,
        0.007517358245955729,
        0.03156843407354672,
        0.08020487833322046,
        0.08412843410143617,
        0.11853170650728509,
        0.14037281015039135,
        0.011137653636845966,
        0.11902035035384094,
        0.09577891211550116,
        -0.04074734210361738,
        -0.09846536783432903,
        -0.03466053745002142,
        -0.08433510627525898,
        0.07882355262504297,
        0.05378851201612426,
        0.07929149897943535,
        -0.09030866712411234,
        0.05524907816599667,
        -0.035197744520027524,
        0.03659461408735519,
        0.11518755252813946,
        -0.05182233813699739,
        -0.026830444107194925,
        -0.10879341987893046,
        -0.00835779739961841,
        0.15552793945801072,
        0.011171891822552363,
        -0.011253134044202856,
        -0.1222563705977896,
        -0.015427602423137505,
        -0.048107829003138265,
        0.08509995817159345,
        0.08702296810438068,
        0.07177668716585327,
        0.11269786469737154,
        0.03959368496218287,
        -0.11463173849605258,
        0.07038252416988511,
        -0.05940549368040814,
        -0.05109120731861646,
        -0.04277397044353887,
        0.029692971603188043,
        0.07743831510266898,
        -0.08065930520176887
      ],
      [
        -0.09224426910322846,
        -0.032821355657217895,
        0.07992926351014563,
        -0.0674601900096412,
        0.08569476582420851,
        0.029577209742368424,
        0.03987019503095283,
        -0.054948863527293945,
        -0.05632573824400634,
        0.06302670097530218,
        -0.10396159270749436,
        0.07581341676253842,
        0.11181918358997303,
        0.014480728102236523,
        0.008457121286979312,
        -0.021377722188624753,
        0.08640693168193635,
        -0.09278232533018649,
        0.009822095647595936,
        -0.0006314430421511155,
        -0.07024857349187437,
        -0.06527578439238792,
        -0.012028864607570485,
        -0.10067672703912882,
        0.0996682792476099,
        -0.09457534603243185,
        -0.027486578779102537,
        -0.025722947462089526,
        -0.10506868422727489,
        -0.11910480373117786,
        -0.06243173244929073,
        -0.1044058138076395,
        -0.03406303899968592,
        0.008080559321456095,
        -0.09723793587575466,
        0.08274139333934362,
        0.01389806901785277,
        0.07791299724527388,
        0.08294812764562111,
        0.036701044248057216,
        -0.030991312413265193,
        -0.09703237481967866,
        -0.13168580672041175,
        -0.0521576604868075,
        -0.0026601159978033636,
        0.057674880852049124,
        -0.11396548066385082,
        0.09200673587363843,
        0.06801631738542985,
        -0.023464682362596523,
        -0.11379477206119554,
        -0.061254899453525545,
        -0.09833561946544714,
        0.042513840327683926,
        -0.04997192356924879,
        0.08544593174258323,
        0.08457021553630993,
        0.10308435068429636,
        -0.1399376815190392,
        -0.016314534412706395,
        -0.007028191560612351,
        -0.027772580706051212,
        -0.10810734022760025,
        -0.09943132718703467
      ],
      [
        -0.20343762695188006,
        -0.005874901931183614,
        -0.0353171253445184,
        0.06514368142021017,
        0.08002061261174279,
        0.1341487663512448,
        0.10789439810458236,
        -0.034997162858624684,
        -0.059206685903471876,
        0.08680918079938661,
        0.05297728630776205,
        0.06585729884777705,
        -0.13857637506073323,
        0.004996365098708815,
        0.041865902164494685,
        0.0663721045765597,
        0.03600715940506751,
        -0.057889575721065976,
        -0.01922773092623632,
        0.035474622273601195,
        -0.07666202288825051,
        0.0979501633351383,
        -0.028527267938729138,
        -0.12685825259931324,
        0.10957052493126548,
        -0.01121461808744042,
        -0.05355566037410192,
        -0.10280769540767097,
        0.10967519024576287,
        0.07981568469194687,
        0.09963761704542246,
        0.010398781357447475,
        0.0142629934913372,
        0.11906207720882336,
        0.06919095997284194,
        0.17105782351584273,
        -0.11822460421173672,
        0.11295430956400199,
        0.08463432678409501,
        -0.011245274827512336,
        0.09312379068354713,
        -0.0835424321417343,
        0.050172962932571036,
        0.1143072086489201,
        -0.0610761665649293,
        0.022371366925581778,
        -0.10808747709207879,
        -0.07327374052452222,
        -0.06004918292756177,
        0.04868540968616355,
        0.04619365660392941,
        0.05589844817920634,
        0.102072807047059,
        0.11124975484919045,
        0.00518908844408411,
        -0.12069080773722961,
        0.07247147966070597,
        -0.0013010175410219417,
        0.11316522222123644,
        0.027610470084542132,
        0.043562137023700556,
        0.059005306294183386,
        0.0857042778813262,
        0.06082794260192796
      ],
      [
        0.06265956007611656,
        0.06175060815614874,
        0.03962466613308765,
        0.0291020410641095,
        -0.013676516561376235,
        -0.016895068980694115,
        0.00014460188315890574,
        -0.09236286353436185,
        -0.05834856307542668,
        -0.08719625931696631,
        -0.054741681953408665,
        0.1121255286078665,
        -0.024562757838744106,
        -0.007970286507191197,
        -0.06168284944179912,
        0.20958576791292854,
        0.02890190052733336,
        0.05233886221606779,
        0.19821534514130057,
        -0.10822165964394345,
        0.20637615911180773,
        0.16395562356625304,
        -0.13282950005153796,
        -0.08143628761378419,
        -0.0352828357807359,
        0.11625137790831874,
        -0.20663285554421842,
        -0.11076769268907997,
        -0.026767507116311144,
        -0.13770237124950138,
        0.00341541709616394,
        0.06944651303074596,
        -0.06762427343917338,
        0.015118886095992405,
        0.14786007057822723,
        0.08243642231965549,
        0.09168142079714785,
        0.019379838945924592,
        -0.061056986547971946,
        -0.03470640801891848,
        0.01322451011196815,
        0.07270174292561007,
        -0.05923833434469983,
        -0.11448754057089056,
        -0.020202193139030974,
        0.002793035979593476,
        0.07846430529263389,
        0.06419065923187994,
        -0.13734213905587667,
        0.017389926279296482,
        -0.015323835372246117,
        0.01989905676701624,
        -0.023607861687819278,
        -0.06200865094731176,
        0.06290953430265406,
        -0.060351167077688415,
        -0.06983521988631114,
        0.14428742863356805,
        0.03781847982123453,
        0.18845688100818403,
        0.05374796655785909,
        -0.07936767240218107,
        0.07750137704262658,
        0.10996528264023726
      ],
      [
        0.24755960637852048,
        -0.21974901367374025,
        -0.0556345629343986,
        -0.06092984134502908,
        -0.1416608805330826,
        -0.2475947218463583,
        -0.024379631841721677,
        0.2264781838313767,
        0.2649524821202921,
        -0.1316540327777013,
        0.031366130806904514,
        0.06927779019530808,
        -0.27703102982623523,
        0.0903163750779722,
        0.07460161958658643,
        -0.01332185745891525,
        0.31547994102679977,
        -0.060351245517205526,
        -0.10564950032373309,
        0.5054852260200918,
        0.3877161611592026,
        -0.2692782390193517,
        -0.5652965732145396,
        -0.39450608740686066,
        -0.22647999263822707,
        -0.11378136682382238,
        0.09200438011225102,
        0.030019508686927095,
        0.11143177413082253,
        0.14270870461435312,
        0.1407973752764895,
        0.06899922758055126,
        0.09412672287205844,
        -0.002865136413156706,
        0.14408674498915527,
        0.013593037393116774,
        -0.04089626268337505,
        -0.2133868167092829,
        0.08959694112190406,
        -0.061283157420963276,
        -0.20401937382970575,
        -0.08649893225979274,
        -0.272776214503881,
        -0.030933202159721947,
        0.21584695242192403,
        0.029107747335313044,
        0.09211738566280024,
        -0.08267236816856148,
        0.1049796487288917,
        -0.10773850421399601,
        0.19590253198089108,
        0.07316306506007209,
        0.1720390716770488,
        -0.1291480313393714,
        -0.01989803215042731,
        0.04534611144483126,
        0.018451770970554626,
        -0.1416648083289307,
        -0.13226652918106743,
        0.12605280066929653,
        0.2228556589632591,
        -0.041130785699592005,
        0.1879591659335213,
        0.24802778072121753
      ],
      [
        -0.09839969552879561,
        0.026062866278466528,
        0.12283851076803268,
        0.03790003470261716,
        -0.01911079377976334,
        0.14393395995728103,
        -0.08319629041195635,
        0.04391330177062128,
        -0.015956421696262373,
        0.17180396442707016,
        0.14430696739655305,
        -0.08218702029926458,
        -0.22180268240964912,
        -0.0523248100163736,
        0.13073125483870834,
        0.17456853995502292,
        0.07047426804266026,
        -0.2898159105007342,
        0.06174944067896605,
        0.07325187653573963,
        0.08178453130054668,
        0.32540627794499327,
        -0.008703293947170143,
        -0.09961740750557412,
        0.15810260126958028,
        0.07126790692093223,
        -0.2964992233063895,
        0.08685471598135357,
        0.011142304324659494,
        -0.10310657315608616,
        0.11019178639823726,
        -0.08105934336215224,
        -0.06547182991081789,
        -0.024412253830375243,
        0.08121834893031543,
        0.1592628918562349,
        -0.04395833843873938,
        -0.0839044472261716,
        0.13202869006655843,
        0.12426996335310324,
        -0.10521016927984961,
        0.0525500998790835,
        0.07838793631088325,
        -0.02474757012916408,
        -0.0016410190541273934,
        0.08258530736947009,
        -0.06614542299640432,
        0.11659236174820956,
        0.03921569549269973,
        -0.011297375808088792,
        0.1191906250422118,
        -0.07904341923346213,
        -0.13705191156397326,
        0.11606927496880107,
        -0.009285735958986407,
        -0.11253002978931119,
        -0.07140318085217848,
        0.11256004889848989,
        0.0915734611182621,
        -0.10037584044631027,
        -0.03227239492634368,
        0.07002698869280533,
        -0.034394713218110114,
        -0.16126705147811754
      ],
      [
        -0.018392098941395433,
        0.11578433517371305,
        0.050095923863339976,
        0.10429415137089462,
        0.10886748592892365,
        -0.05629489607420298,
        -0.02000748628630417,
        -0.11139698998397353,
        0.09324539925942053,
        -0.014827493617105782,
        -0.05674069979881752,
        0.05271510276589917,
        0.02799281784567866,
        0.020648608861092304,
        0.022189639473555706,
        -0.005101742188216826,
        0.06773104524365219,
        0.10979285989026791,
        0.0055370516354683605,
        -0.08462238834273274,
        -0.03166142481544074,
        -0.09168691151899801,
        0.03694010858843484,
        0.0594834202413138,
        0.02454750671899515,
        0.06316348970400834,
        0.13007083884718326,
        -0.011905381152566868,
        -0.08040940347954634,
        0.03194812881142015,
        0.06644214820438363,
        0.0669868411777131,
        -0.035103877531194545,
        -0.12357371441179356,
        0.04579587469661859,
        -0.010928229653905962,
        0.0813151531395565,
        0.07032300827747302,
        0.11299942470407218,
        0.06361474098333228,
        -0.08428857603102581,
        0.03784429683910645,
        -0.0310584466632583,
        0.0920679492502446,
        0.08241904782473561,
        0.13302339530371668,
        -0.06332195538907111,
        -0.07181619588245407,
        0.011073357174923602,
        -0.13806568936326843,
        0.04955655099705364,
        0.056367335603536246,
        -0.059935392798489036,
        0.09055034533285077,
        -0.04968959081163553,
        0.0420870611235176,
        0.09614342854902276,
        0.025604204146499807,
        -0.02825548793497785,
        0.04299833311078107,
        0.023298870498415225,
        -0.04304662289231287,
        0.07423745289556986,
        -0.043899725773842053
      ],
      [
        0.061491249296335954,
        -0.023822501927684328,
        0.09422704745688473,
        0.06194042418359617,
        -0.050408170636637675,
        -0.22150891522041047,
        0.040368348495227496,
        0.14449798120145746,
        0.10141879334920056,
        0.06390970522116285,
        -0.2422699683072977,
        -0.18050908543750646,
        -0.05108170377597559,
        0.1347045575752701,
        -0.1734464657872024,
        0.13744992846777682,
        -0.25079324048380147,
        -0.1556080945196369,
        -0.06779479404285922,
        -0.31252140003130197,
        0.22280887994434714,
        0.062450662191127854,
        0.0762755872696479,
        -0.06116904124039077,
        -0.1279448514539746,
        0.057844218873844944,
        0.14598716773819842,
        0.10485130835056415,
        -0.12744800753360291,
        -0.028147860991566315,
        0.0800436385415539,
        -0.016367572943275337,
        -0.0792872011937863,
        0.04622669893569766,
        -0.04671304937289427,
        -0.2180273101393361,
        -0.1000515570431002,
        0.03820179745293111,
        0.15945344933422406,
        0.07645390672193403,
        0.06367259093935979,
        0.06916545957677941,
        -0.007397105256937305,
        0.1381124932738388,
        0.04968678230624115,
        0.06320619640564538,
        0.14309019149499605,
        0.062224668285045595,
        -0.08419137623591412,
        -0.08279289882143653,
        0.12081628928602105,
        0.04249667294225173,
        -0.04546028153002967,
        -0.10166687210157167,
        0.08150274927997568,
        -0.21886474860119962,
        0.0825097729987099,
        -0.058448242859491586,
        0.014555201704683848,
        0.01670435479053091,
        0.09042355303420908,
        -0.07918813383667345,
        -0.14054271494257803,
        0.28393743929815896
      ],
      [
        0.19366516984629686,
        -0.07362693051273789,
        -0.004386563142564846,
        0.10133170753348088,
        -0.11133373984358762,
        -0.4251708473132558,
        0.07796102100386082,
        0.06557596868420584,
        0.0781258956490094,
        -0.1547020970998159,
        0.02315329968414709,
        -0.18804920242115075,
        0.07032809553500427,
        -0.14396698225319643,
        0.0062934967409476565,
        0.09101031636165269,
        -0.03176786019681387,
        -0.06304098787291398,
        -0.07579249302715883,
        -0.06266304310953986,
        -0.1676637402678806,
        -0.0581252416363758,
        -0.12929713840229,
        -0.04836581084000574,
        0.0872187605632589,
        -0.18940133873623638,
        0.2791444640895002,
        0.07209823743522065,
        -0.019781508438051622,
        0.17463602269573858,
        -0.0878040842094038,
        0.09652582787704414,
        -0.05335472664000849,
        -0.05154701619441173,
        0.15458225980140733,
        -0.10888067364272955,
        -0.044416502559939,
        -0.04832696104140315,
        0.12902780186161428,
        -0.08374626026923246,
        0.059491032853676504,
        -0.07611505751692245,
        -0.17334091716744107,
        -0.011260058551571115,
        -0.040306855122063084,
        -0.028101528518459123,
        0.13814301334543258,
        -0.15510465192834416,
        -0.1465334440554304,
        -0.018744439890174887,
        0.018088676096662246,
        0.19018367809709802,
        0.15906453645733326,
        -0.0706130131994553,
        -0.03161431962498733,
        -0.16127937310403004,
        0.22125497940710487,
        -0.04716070248716783,
        -0.008178667929677773,
        0.11625710660410975,
        0.23095127211128924,
        -0.028317632131849735,
        -0.0004274797363989241,
        0.15899638456376303
      ],
      [
        0.10027510305477778,
        0.07949082276327796,
        -0.06863778641971702,
        -0.08744342134457429,
        -0.10288624241982962,
        -0.1052424707771856,
        -0.044977448782844105,
        -0.08286435125261414,
        0.0092269609892242,
        -0.14614880903008876,
        -0.024475382347967863,
        0.08841642819385057,
        0.13390759527724197,
        0.05917019796455504,
        -0.03753602752048698,
        -0.0006888410715485731,
        0.036611652609077325,
        0.11976693778677829,
        -0.08296349042891718,
        -0.048142225959763044,
        0.0963373096251188,
        -0.10104452812756246,
        -0.014274277694386392,
        -0.030413554868937397,
        0.09034056957121545,
        -0.049741575963870105,
        -0.0527429379125103,
        -0.06607146701683415,
        -0.005101737473873126,
        -0.003279729149017913,
        0.03353135844910074,
        0.05968541444256867,
        0.01748227789877662,
        -0.03178959055924558,
        -0.019505947731836348,
        0.06347355658347129,
        -0.03085021438151405,
        0.08999585307234405,
        0.06136414812996038,
        -0.09926845517408873,
        0.14598686447905218,
        0.007252655543207452,
        -0.0167733218891605,
        0.09657916168788132,
        -0.10677396181879523,
        -0.015219946079219851,
        -0.040047670990191055,
        0.058690901141693896,
        -0.04167475145727654,
        -0.03725590477625258,
        -0.010448041684885131,
        -0.1593719079756108,
        0.09508715952543255,
        -0.07753480856179429,
        -0.09890668030806712,
        0.05312854797865466,
        -0.04050862795421293,
        0.09923252872278016,
        0.09087733621023945,
        -0.16698241270138847,
        0.036787046371512186,
        0.09451276721567015,
        -0.06881109891629301,
        -0.016796733723071628
      ],
      [
        -0.042464542211571234,
        -0.03316073499274987,
        0.0862926055741181,
        -0.09028120073066538,
        0.0876904335075141,
        -0.06687722792727539,
        0.04700440197791545,
        -0.054642495435256816,
        -0.039279693925390304,
        -0.04843417175823165,
        -0.06723737022806095,
        0.05358692199827526,
        -0.12043135736980362,
        0.023041561510392414,
        0.048979145059860445,
        -0.043974628860853654,
        -0.11859523402729169,
        -0.11542942368478737,
        0.050650176211801054,
        0.10037910857216899,
        0.1120407861471414,
        0.0972210700743103,
        -0.1286630558276644,
        0.07949206066889117,
        -0.044478457210899325,
        -0.05188111662488651,
        -0.12615846548799095,
        -0.11350283653727988,
        0.058537339224154376,
        -0.13094508954730166,
        -0.13080528524436355,
        0.10149753161823069,
        0.03829491419980345,
        0.07004602032229534,
        0.025945557607258137,
        -0.03738992733389951,
        0.11952932243811058,
        0.042686887117526225,
        0.033876697495304586,
        0.07781650383111152,
        -0.11718570270614484,
        -0.09299763391178842,
        -0.0633141025533056,
        -0.044971306587310564,
        -0.09415651969873448,
        -0.09254792989771514,
        0.06808425411211824,
        0.10264290165714135,
        0.0716674554377169,
        0.10578920648145261,
        -0.11739041684232752,
        -0.08088153801303266,
        -0.05535336093250334,
        0.01947345261397314,
        0.08337830220208545,
        -0.06479338161511082,
        -0.011953213480253765,
        -0.06725140437569631,
        -0.060848287121394735,
        -0.1315608026884175,
        -0.087932495116216,
        -0.047311341233377706,
        0.09388244717272254,
        0.06059229094503995
      ],
      [
        0.06008350733924095,
        0.07857424199674026,
        0.06811821260562288,
        -0.03919716749227165,
        0.011231326806947281,
        0.08739929327428149,
        -0.10099760026848954,
        0.05711882360754579,
        0.02993960600937127,
        -0.11413275753429943,
        0.005193361062110497,
        -0.007008070000996306,
        0.2848793947553114,
        -0.10432796619301836,
        0.09214417071479729,
        0.14408562424263968,
        -0.029521682024015398,
        0.053813323819064736,
        0.010571319186204053,
        0.012933374642595866,
        -0.0719784688253502,
        -0.0338933065932413,
        0.06625694859635034,
        -0.09969072752687533,
        -0.05839747951866062,
        -0.010493729356446106,
        0.09860691805671755,
        0.05999941712224886,
        -0.10049930079556689,
        -0.007241654955464382,
        -0.05154430918517374,
        0.03935466845346891,
        0.019434714099219597,
        -0.06854911319486906,
        -0.10730055375225361,
        -0.09442375312046716,
        0.011776775898574258,
        0.06836065433555477,
        -0.03903909479059256,
        0.05905500155835757,
        0.12031616109073136,
        0.029253107177347915,
        0.01481084241396235,
        0.07092111334885445,
        0.140037644555059,
        0.08107493223649241,
        0.13297504651024594,
        -0.05444131261809976,
        -0.057465907195484965,
        0.017677581045053233,
        -0.102940256559082,
        -0.14868269816106874,
        -0.04278712456945971,
        0.11894846626838462,
        -0.07097615572959301,
        0.10479043530349676,
        0.13203825922249268,
        0.038438581884441415,
        -0.12538516412438375,
        0.02774060012766454,
        0.05278291699749668,
        -0.10263916050311958,
        -0.016706015888342318,
        -0.0694240633705029
      ],
      [
        -0.48232121350212154,
        0.13128731508163713,
        0.05006320626948276,
        0.037872368431773315,
        0.0005846492498712166,
        0.12994326347228646,
        0.0038856486941463843,
        -0.7709690118853822,
        0.06662676754378863,
        0.07165592012501341,
        0.18285698294167205,
        0.0658272298824283,
        -0.24483214056808028,
        0.30535286393942807,
        -0.04655234327900662,
        0.2514142968000397,
        -0.43115202579726797,
        0.010894437184686067,
        0.11147471520448517,
        0.422167775223663,
        0.3362469284021851,
        0.39185248028614705,
        0.15781540394472252,
        -0.35678027130085566,
        0.6321063234973752,
        -0.20427475976899426,
        -0.40410355847633417,
        0.12666564172377712,
        0.6188487290100187,
        -0.10478335187369876,
        -0.015781070722349296,
        -0.03410000550116581,
        -0.25655463224958136,
        -0.07804587640605982,
        0.012891492088844566,
        0.3149016074027101,
        0.13402421912524734,
        0.3003414188600152,
        -0.0012222317540504053,
        0.18687224225549498,
        -0.13575007438117365,
        -0.6333665338382803,
        0.04985055220257893,
        0.23572920479921755,
        -0.5788646031042174,
        -0.025458220554635477,
        -0.059008687739417726,
        -0.05815922667155892,
        1.0119081489437707,
        -0.18903804346577305,
        0.08082283456877933,
        0.15622430700662995,
        -0.07087038258374341,
        0.4565664253388258,
        -1.0524804859075503,
        -0.1029054260073425,
        -0.4016289425185139,
        -1.0151007412836957,
        0.15474018559715663,
        0.11115348130424318,
        0.47548858151172596,
        -0.03550383654045831,
        0.17427497368519038,
        -0.015198562473677504
      ],
      [
        0.02358270297875116,
        0.0037286051311399182,
        0.09342866669768422,
        0.036551707946478294,
        -0.05700855388729309,
        -0.03751932941084157,
        0.09941269194728258,
        0.03466578634222046,
        0.035531805628703915,
        -0.11252291745865742,
        0.11963042214401733,
        -0.021990092214007585,
        0.031136641344783538,
        -0.054789833041864806,
        -0.07866403997034463,
        0.04295925497846147,
        0.08691978218097073,
        -0.0979239111791599,
        0.13112122905364573,
        0.1606004209051514,
        -0.22951347170935468,
        0.07245201573511328,
        -0.03655408398919952,
        -0.08406459550242325,
        0.03296634043394425,
        -0.13956093181611662,
        0.11799468745904841,
        0.03019676493847317,
        -0.004126448930958515,
        0.27017809989941943,
        -0.05311810712550263,
        -0.0708014914740341,
        0.12233788614567742,
        0.029524741374046835,
        -0.13553378964809557,
        0.13313578550686037,
        -0.014655672082200389,
        -0.03764315228452377,
        -0.08244336941143594,
        0.01493698073354095,
        0.18012768143727126,
        0.1482875068367152,
        -0.07859009414376196,
        0.03994926171393232,
        -0.0178137260789861,
        -0.11990215532035274,
        0.12278045782513204,
        0.02780145705961571,
        -0.09540684522633655,
        0.10296933385556939,
        0.02303547300629368,
        0.088181038823361,
        0.05013310833403091,
        0.08417336201563973,
        -0.07652985267844377,
        0.06035097026089809,
        0.10670076995894309,
        -0.021205481361193657,
        -0.09507810899975941,
        -0.13116577392046946,
        0.068607250511334,
        0.009785597168698278,
        0.13400418857495355,
        0.07950555281254414
      ],
      [
        0.036617370845064834,
        -0.030340039456758665,
        -0.054579944327996725,
        -0.0827941467133652,
        -0.019388775544008297,
        -0.1421579465070783,
        -0.03366065248508935,
        0.07411707274467162,
        -0.038721219131938496,
        0.055403729487937266,
        -0.08595285788346499,
        0.03716956208504285,
        0.013690371060835052,
        -0.06113340828678348,
        0.07446495931906794,
        -0.03942024748869952,
        -0.0680603841852922,
        -0.03543230484924531,
        0.0637673498020774,
        -0.1198030763182017,
        0.00037907505966810437,
        -0.05965205141134106,
        -0.12700381885641215,
        -0.09070333056463913,
        0.019761694356418214,
        -0.06705500952594619,
        -0.05962090039991349,
        0.011844036041944485,
        0.010201593073133938,
        0.08910150441200392,
        -0.07584491275827074,
        -0.09086844553464973,
        -0.10940185721523481,
        -0.05807908898837202,
        -0.13128228361894065,
        -0.08680387008132687,
        -0.014888705621041848,
        -0.18642422435055966,
        -0.045601479371217585,
        -0.007265473591897171,
        -0.026278252257852967,
        0.0050927364403274165,
        0.09696359910194706,
        -0.11457005523488119,
        -0.050251942896456896,
        -0.12862663440140654,
        0.05267409855886278,
        0.07060896180405121,
        0.02504409159495265,
        0.10194138015216003,
        -0.05124378050340524,
        0.06883503849049101,
        -0.11467900258943584,
        -0.009170018095830807,
        -0.07804697726997784,
        0.015442982674724982,
        -0.10851416323099405,
        -0.11792623476895249,
        0.06684397995738288,
        0.05411287258577818,
        0.065059955894949,
        0.0028264756397902257,
        -0.09413670472838423,
        -0.0377254824253881
      ],
      [
        0.37486816989942645,
        0.12920794575109262,
        -0.09976411191615674,
        0.11353796847714015,
        0.05890784886096078,
        0.29794837017024417,
        0.09622054097097209,
        0.0743029910374671,
        0.1266999099939269,
        0.0659669622862801,
        -0.23076296456101433,
        -0.27054257810111115,
        -0.003142857048929156,
        -0.09673442943627533,
        -0.13649235240298857,
        -0.07397237707567818,
        -0.1170476979162802,
        0.061521519335533605,
        0.48216652185154624,
        0.0030998573921956975,
        -0.13561465318721921,
        -0.3907196226393012,
        -0.2677261312575336,
        -0.06276947957721471,
        -0.12805832463524494,
        -0.08262184666263199,
        0.12151249320824038,
        -0.14716994328300834,
        -0.057228911342225325,
        0.2118698353997347,
        -0.20744809424934768,
        -0.07104088507107188,
        -0.1758935360781823,
        -0.4015838637525389,
        0.14509230016220753,
        -0.02268992800742651,
        0.0708806234117309,
        -0.05838708503989945,
        0.33829814434730526,
        -0.06928090411280308,
        0.07895485009159768,
        -0.03138237072067539,
        -0.029589751464992792,
        0.05728450203482806,
        -0.0484102761510993,
        -0.11689432493518927,
        0.13596330021164685,
        -0.03292292264999091,
        -0.06905098223331635,
        0.08591982064167547,
        0.13654536713893123,
        0.06880925382911876,
        0.21591685307670838,
        0.14597624489808897,
        -0.0962508841561051,
        -0.45339292698852157,
        -0.14829555334989009,
        0.09185012431972911,
        0.11213772859865044,
        0.06249944935644993,
        -0.12179161831152371,
        0.14411575518212294,
        0.3469615463636259,
        0.0284859898859747
      ],
      [
        0.0934857445920089,
        -0.02422545796298572,
        -0.15660912613463707,
        -0.049065108548191357,
        0.13325623048635943,
        0.0022852979572614367,
        0.03544240378312455,
        0.1624174268272714,
        -0.07261837233979933,
        0.16809134324715266,
        -0.07764396253059619,
        0.07740948900103042,
        0.09093412725989963,
        -0.01955400201432509,
        -0.017527515657937556,
        0.10625535625806014,
        0.10915904861437686,
        -0.10338947267432994,
        -0.2405965161959213,
        0.17459674702447803,
        -0.05017139241654942,
        0.023960745881714696,
        -0.07830735409277773,
        -0.1198978215867751,
        -0.007071075284142459,
        -0.22948371189864306,
        0.1863365653047,
        0.057123033833916,
        -0.08202083939053016,
        0.1205227452216272,
        0.008615256032827064,
        0.07711294632553783,
        0.02010820698093497,
        0.06938257019618921,
        -0.035416521220673604,
        -0.3335597968174648,
        -0.24269144318232838,
        -0.02529076698841006,
        -0.015352615614644446,
        -0.11688574671790221,
        -0.06738082885159609,
        -0.13640721174066456,
        0.10329795184598606,
        -0.04023635176999091,
        0.16649207860605048,
        0.08540598707267867,
        0.010189936448013937,
        -0.10632687640411473,
        0.07935541145676281,
        0.1590812893508101,
        0.14735429054784854,
        0.1377190589036717,
        -0.0059032786564867734,
        0.16393825516174795,
        -0.07748862577341162,
        -0.04942105639628898,
        0.010828748685215644,
        -0.05998892321070768,
        -0.09268810602338476,
        -0.03682865675079997,
        -0.07803189154922921,
        -0.02964972849915629,
        0.11426243707882011,
        0.06778193751878782
      ],
      [
        -0.1207194592023726,
        -0.07282454711336014,
        0.025239323301797914,
        -0.05639340778545627,
        -0.0654316602078401,
        -0.0870380163107431,
        -0.07640649187062455,
        0.032218350882173286,
        0.09554194890096412,
        -0.12867889158859272,
        0.06994633082673156,
        -0.10010072244377206,
        0.08828587086823321,
        -0.03018235391979432,
        -0.06105637762384773,
        -0.05862228294694182,
        0.04164883006488958,
        -0.0896114062970594,
        0.05441590175401036,
        0.04769779504906953,
        0.11583182195067827,
        -0.10496729933029389,
        0.11391504288049002,
        -0.04740172334067247,
        -0.08832992409060564,
        -0.05164792711322097,
        0.06271082661067112,
        -0.08161624829690993,
        -0.09055166400436031,
        -0.10723558925097551,
        -0.026780996728832523,
        -0.01823253309849804,
        -0.006030239670176879,
        0.10047785509068702,
        -0.051053991517552244,
        -0.026764933582919065,
        0.003438228509279065,
        0.058521058618276986,
        -0.04279774604941458,
        -0.13040232250819425,
        0.04167096213230633,
        -0.1178743823574124,
        -0.08571422309288289,
        -0.005641131749580648,
        -0.023967581181598672,
        -0.07152389975472484,
        -0.07716043998193367,
        0.037765266311873116,
        -0.03160263062703148,
        -0.015643817496568534,
        0.03691531414614475,
        0.11159779972017797,
        -0.044529261101073435,
        0.09558320265537079,
        -0.017692221058421293,
        -0.11643014211934147,
        0.09609804359237249,
        -0.09534478552508761,
        -0.030947103831269366,
        0.06620668949531856,
        0.0691166534644988,
        -0.09133721752158866,
        -0.10811812971328531,
        0.021231216245429244
      ],
      [
        0.8543136060069201,
        -0.8687097718695383,
        0.7389458234361318,
        0.2780500027474181,
        -0.1421639073144922,
        -0.37712493078045284,
        0.1463806223959313,
        0.9894200060641428,
        -0.12470287877515067,
        0.09038027998948746,
        -0.8865194333704021,
        0.07452014086500373,
        -1.0947997940169283,
        -0.7738899402837109,
        0.17395778293722458,
        -0.8088207887059696,
        0.12077986592288928,
        0.030812653687540208,
        -0.11062012565326748,
        -0.5836697439295103,
        -0.5367310552810259,
        -0.37608394960956415,
        -0.094454367443487,
        0.6427995909575688,
        -0.18586908431625843,
        0.37601070665521275,
        0.7279171823249413,
        0.15488251092507144,
        -0.988438987780259,
        0.5798561266439617,
        0.22422408897026,
        -0.02596295306736684,
        0.6602892867242711,
        -0.013996485497065374,
        0.02013998975950898,
        -0.9816802650122559,
        -0.3250570953932201,
        0.03259752834346553,
        -0.5684240063443319,
        -0.07080272208655856,
        0.7806033318910958,
        0.5418724330459631,
        0.1997133947049573,
        -0.5178737673536213,
        0.5220585620088771,
        0.4147634679680708,
        1.2112293518751827,
        0.07701220283331667,
        -1.5096666682579507,
        -0.24964713418952042,
        -0.6889377756176636,
        -2.131029705872775,
        0.26347429090391483,
        -1.1709099633033577,
        1.0543787404958072,
        0.13579950754469947,
        0.41332990899199246,
        -0.9518996971162494,
        -0.46670122630967054,
        -0.12312172354139611,
        -0.8337147473289335,
        0.867153633690865,
        -0.116277465221207,
        1.2024748441447064
      ],
      [
        -0.06509395530663516,
        0.08389012210564437,
        -0.07605583574073435,
        0.05379064147584934,
        -0.12354181709859892,
        0.10259368300743814,
        -0.05665951393370311,
        -0.12492159407773078,
        -0.040382563032317326,
        0.05330685796070207,
        0.05847008519156304,
        0.07476932462243459,
        -0.05876361156854958,
        -0.09746689242793814,
        -0.026831241044693862,
        -0.05071048455848721,
        -0.07667624012068563,
        -0.11198202574580121,
        -0.0321870325613711,
        0.07847465667915508,
        -0.09619127560498529,
        0.024103517153817117,
        -0.05020965608492894,
        -0.03184717608041644,
        0.045921595395164966,
        -0.034103188062845784,
        0.07193466038616061,
        -0.07449870532916344,
        0.04190217284043672,
        0.04686769669796545,
        0.09962081732401318,
        -0.0858207480182329,
        -0.12543609751887272,
        -0.08630554224323617,
        0.0015729575769823357,
        0.03863835189376123,
        -0.058050612381797345,
        -0.0724634605070896,
        0.024932347148703453,
        0.016542414054436346,
        0.027204978449043803,
        0.10970498915465568,
        -0.08503957227628053,
        0.07536729235648672,
        0.12390617779059014,
        -0.10646500696810773,
        -0.13381598373545156,
        -0.05410041520063832,
        -0.02288778107633278,
        -0.11406625268391649,
        0.024747981825525112,
        -0.01434781345554133,
        0.09651339928441564,
        -0.0032623935624461475,
        -0.11303770265334649,
        -0.030840011804057384,
        0.012242156383412962,
        0.055623738363932126,
        -0.06364379428748912,
        -0.014338539723581414,
        0.09943346027886636,
        0.028776723182748362,
        -0.12872847634814852,
        0.10123101954106159
      ],
      [
        -0.03732723020348211,
        -0.07761677076911248,
        -0.11115117115909966,
        -0.0879083159489815,
        -0.09717230486944345,
        0.13812082063991746,
        -0.004396450887672704,
        0.009760320618251453,
        -0.010509682935706649,
        0.06761548737898548,
        0.08765859228595715,
        -0.0676079814605285,
        -0.11146123762597879,
        0.06655947377792441,
        -0.12337511128544183,
        0.10424216998445693,
        -0.055995391612512796,
        0.06302771004099263,
        -0.07924260594769668,
        -0.010174607596670654,
        0.006676392512241026,
        -0.06448719122182883,
        0.006104754717342707,
        -0.01430441047681155,
        -0.025838902563300018,
        0.007612691207794476,
        -0.08247553764242783,
        -0.08705420660714552,
        0.06696282964486368,
        0.14703120816457274,
        -0.05003497020809694,
        0.04884981419617804,
        0.08438869213861024,
        -0.13751543983253814,
        -0.10029261269532765,
        0.06600491748910951,
        0.045763833410629326,
        -0.057237525658725114,
        -0.016734186074166997,
        0.05607659264441744,
        0.08288700087596948,
        -0.03647687856254727,
        0.0793574708403278,
        -0.08737011486835157,
        0.050238645619543006,
        -0.01646436860388156,
        -0.048934944775158945,
        -0.036298569668080455,
        -0.09207942025229991,
        0.00603299667214124,
        -0.117212555046602,
        -0.07684747939858214,
        -0.0024099332341619983,
        -0.1129277081654067,
        -0.07349687689495966,
        0.06587848702175304,
        -0.0742577737057391,
        0.08965611009979946,
        0.023456158166139884,
        -0.025289223787071463,
        -0.05092351873145485,
        -0.19878810658950546,
        -0.11661759290878794,
        0.038728774820355215
      ],
      [
        0.14804974806021737,
        -0.0023909236294008675,
        -0.0703074949530218,
        -0.0855569124776531,
        -0.038124736481532015,
        -0.11481257882929649,
        0.002460822606333607,
        -0.025529071220783392,
        -0.0742493700976301,
        0.06378125592086925,
        0.017425788436119426,
        0.008696622914592,
        0.11760266030003398,
        -0.09610739284376206,
        0.07396796139885112,
        -0.07244926861892878,
        0.0541059340807901,
        -0.3484367126308465,
        -0.07607970497376203,
        0.05691135532214559,
        0.20478645218639416,
        0.16740005605732447,
        -0.0826187762026469,
        -0.10508331234691762,
        0.0009316285403114401,
        0.09547114705764892,
        -0.10808433938871759,
        0.01935203635857365,
        0.0755061006140054,
        -0.050503634180591624,
        -0.07244044079160766,
        -0.12412710993357504,
        0.06257155258698065,
        -0.08710872531689154,
        0.13719820119396978,
        -0.18646977004272486,
        0.06744586372431187,
        0.09074756605637159,
        0.3339465222230602,
        0.017044487478626726,
        0.012356063374242445,
        0.09485454867577658,
        0.10107425884432499,
        0.10013697023303442,
        -0.13125833006205173,
        0.08314465107339282,
        0.03070522286540787,
        0.07473743983747616,
        0.08580263688452182,
        0.054246815720621254,
        0.11428002713074861,
        -0.03920362124541569,
        -0.2748947981657952,
        -0.044633803888004434,
        -0.052179719023629854,
        0.06805039988412075,
        0.06573883441307733,
        -0.0255840907100912,
        -0.13157731667017944,
        -0.009629850608112077,
        -0.062044210886550544,
        -0.10413533114799034,
        -0.027827360029776132,
        -0.04974449701669764
      ],
      [
        -0.0713414478486996,
        -0.07603475020920235,
        -0.0862854419188011,
        -0.004273849697926959,
        0.03457621321102817,
        0.17673757951413696,
        0.0887167308695431,
        0.02480189194027689,
        0.048088617633677846,
        0.060700244079060224,
        -0.05043803669455035,
        -0.011866248710446434,
        0.016982752746556005,
        0.1008982488668258,
        0.002362548883584374,
        0.06896583640112797,
        0.07187199005177193,
        0.012838176772290415,
        0.14370247084472854,
        0.1240220945006219,
        0.08061848784443781,
        0.22019611665355274,
        -0.11334995644364361,
        -0.12176470705656019,
        0.10158640331114649,
        0.006257624188509625,
        0.0023431612932434632,
        0.012883778646303998,
        0.11292192763821801,
        -0.0007661063670434936,
        -0.023832661994354354,
        -0.0831060239489933,
        0.09174815523583649,
        -0.07504567410760965,
        0.1005829577634309,
        -0.03017883567759464,
        -0.03428509373618791,
        0.1190857431880962,
        -0.030163107861324735,
        -0.07226880366977492,
        0.010051623906954903,
        -0.012677329715276279,
        0.06184389519199077,
        0.07613724775305392,
        0.0389736820701365,
        0.007384732927982863,
        0.042461663951907584,
        -0.06780733746188589,
        0.06973913505204601,
        -0.08078241092998287,
        0.08097410623041612,
        -0.07077772761475898,
        0.04851643014196957,
        0.03519437373056791,
        0.020584951767301345,
        0.05304515663233344,
        -0.10068949469040256,
        -0.04055063655311,
        0.031836968349515875,
        0.060538761123017336,
        -0.09248454092764284,
        -0.12596866847755633,
        -0.027741704140771088,
        0.06790511281165547
      ],
      [
        0.04053196400089938,
        0.11972556518908171,
        -0.028964660202628986,
        -0.11403792205629552,
        -0.028408130447007563,
        0.038400076081206595,
        0.000494287475858153,
        0.02298435938602665,
        -0.07195017686231184,
        0.14246507813077808,
        0.02106102168741085,
        0.1882943818031861,
        0.10786739481943027,
        0.017371461740783863,
        -0.08959146770109083,
        0.14218783961129183,
        0.12612821598709828,
        0.09198373686131385,
        -0.11258494421269236,
        0.11804782281393564,
        0.10269746709882482,
        0.2387590201540139,
        0.08207103286317903,
        -0.09889224860687375,
        0.09186405247266528,
        0.01174423656443737,
        0.01156140309079854,
        -0.02504593801797509,
        0.0724862204388936,
        0.10729527031051143,
        0.11957543077793058,
        -0.018113615630136855,
        0.07300749542723949,
        -0.057254292436396015,
        0.009220591242552428,
        0.08672730948372528,
        0.0870907249368806,
        -0.015932304454533138,
        -0.19672598360176463,
        -0.13533290965889044,
        -0.23568369990588842,
        0.041325744867883644,
        0.09635039898169818,
        0.05760841614639933,
        -0.00038610456323264397,
        -0.01344043526087744,
        -0.05339266630205555,
        0.036570254338628566,
        -0.0307394443291786,
        0.04509214143908089,
        -0.14367145923132676,
        -0.10619146064707286,
        -0.02280805445965937,
        -0.03028119500192477,
        0.04432126887314884,
        0.025383368073878382,
        0.08708282287604174,
        0.031361437347746095,
        -0.04575733253271852,
        -0.047156744380268185,
        0.08481688514032619,
        0.1745287637134735,
        -0.035842964725866594,
        0.054077734877051156
      ],
      [
        -0.06897966849747655,
        -0.00015447748825051617,
        -0.08748160011848694,
        0.08795117740400907,
        0.016930021365817415,
        -0.03859782648264475,
        -0.11502136589636157,
        0.027113685254107085,
        0.03914838751417717,
        0.0829541104500362,
        -0.11471899867048128,
        0.09476926724683891,
        -0.011794941047678371,
        0.03569638906812403,
        -0.06971194534265232,
        0.03422462716302287,
        -0.037835992431546506,
        0.03923518757168266,
        0.009003460538461728,
        0.07391793302354288,
        0.08372847508681201,
        0.09869652016047005,
        0.09663073309888996,
        0.04040899548827344,
        -0.04281915391524763,
        0.07816968518742341,
        0.11559117984614715,
        0.09324109040405215,
        0.044071287130207824,
        0.16346709296240808,
        0.002344058378596197,
        -0.09491295272047798,
        0.004142709684311957,
        0.12410508169986105,
        0.037409448785602775,
        0.18751959542314942,
        0.14089486589151332,
        -0.0494784037886801,
        0.016086671507528405,
        0.10707586185346839,
        -0.0086836118889095,
        -0.08093518706491318,
        0.053658230199544354,
        -0.11945990350833642,
        -0.16133371269420194,
        0.10693852432448496,
        0.026175173196612472,
        -0.0066512115055067135,
        0.04236493463376909,
        0.09988686432575399,
        0.038256233297410944,
        0.0865132818136273,
        0.07144784214480611,
        -0.0320592880698769,
        -0.14335033000117184,
        0.0627466270932306,
        0.09790489566405228,
        0.048296121382662136,
        -0.06362858358027172,
        0.11552739017627096,
        0.05071698331246758,
        0.02041008042102734,
        0.13349837645272816,
        0.06894340116340746
      ],
      [
        -0.01487590656538698,
        0.0021004167511619017,
        0.10694141228182127,
        -0.10536375441509242,
        0.02899180117427724,
        0.1303475035074794,
        0.0922939400626047,
        -0.023067754895031316,
        0.0772986970820935,
        -0.08590129270618849,
        -0.02819164250445833,
        0.10030016591116839,
        0.07504753475542017,
        0.05423287124926119,
        0.04346021985454097,
        0.015258263251714962,
        -0.03888643603186115,
        0.01385452105309838,
        0.10173096948893418,
        -0.02027803427726425,
        -0.006228822449886184,
        0.0728331972010202,
        0.04356301240990331,
        0.1028683187150514,
        -0.020910565901316503,
        0.04785021398618542,
        0.06692049892261534,
        0.08980651950871346,
        0.10183226539003752,
        0.035594473859854724,
        -0.04045965577057187,
        0.06562776518496857,
        0.07391640652920502,
        -0.05324134320781302,
        0.04211146610164447,
        0.19409587937592487,
        -0.03673180116972488,
        0.08282118611296879,
        0.07991536244360406,
        0.0958320270198864,
        0.025819632123651574,
        -0.03196238825360321,
        0.0875173036044745,
        -0.12316656325922935,
        0.10120099215792595,
        0.05790997117424009,
        0.03405835864486058,
        0.05004364772853157,
        0.02129484813154017,
        0.07550850197826901,
        -0.04585272310808786,
        -0.03690168465145699,
        -0.045313507695848056,
        0.0221612770571727,
        -0.045568928185554365,
        -0.11436395602472581,
        -0.019280567954722248,
        -0.027396704128304694,
        -0.04373857179049658,
        0.0709983303978882,
        0.02064737532219663,
        0.02248531502549982,
        -0.0466634998419468,
        0.037783813708142135
      ],
      [
        -0.0856093947577476,
        -0.06426919961121139,
        0.016493647628658386,
        -0.10235596516010755,
        0.052762101872962035,
        0.2965439194354002,
        0.08885802739221729,
        0.06320788043114656,
        0.014306019716793747,
        -0.027999991480490607,
        -0.06873798495560762,
        -0.0788546202044739,
        -0.13454778156500588,
        0.0878360210479755,
        0.10174386988301892,
        0.17405778832927776,
        0.018312945978862863,
        0.07850120669784787,
        0.07339123904355714,
        0.001815487596875919,
        -0.12028974851405105,
        0.02747570874525732,
        -0.033288985155726744,
        0.07977172030058075,
        -0.01773526647560903,
        0.004755732528584873,
        -0.20834556539842528,
        0.06939417224955807,
        0.07209971318075782,
        0.10621940084789573,
        0.05014975595927494,
        -0.12901157482873699,
        0.08195505678927018,
        -0.31826662003831163,
        0.12973834577201804,
        -0.23523156678478538,
        -0.06944577153199138,
        0.022142206825341865,
        0.10102507003032463,
        -0.15106249278839368,
        -0.09982222436568144,
        -0.03172261393544075,
        -0.052160993232403155,
        0.06799409802541992,
        0.01134459057861908,
        -0.012957291986483266,
        -0.18551112295776814,
        0.11709737326197822,
        0.017923754974327778,
        -0.10453849254281208,
        0.15404649574803184,
        -0.10629262246633578,
        -0.04453081402639395,
        0.036190899662428055,
        -0.11565598113136337,
        -0.03632057362725118,
        0.049841715543236416,
        0.048820295559783435,
        -0.11493100242071914,
        -0.1589027858393304,
        0.19264178100864923,
        0.0003120439103090626,
        -0.09738545555475138,
        -0.19077682167026308
      ],
      [
        -0.028856277012288736,
        -0.15407997480324892,
        0.10425876564647203,
        0.016859907915294733,
        -0.01564774326916398,
        0.02693626532613084,
        0.08741015747367499,
        0.059077825894088574,
        0.04602425328096128,
        -0.2048818302347778,
        6.355953145245348e-05,
        -0.09450351415492053,
        -0.09899862584712464,
        -0.07143262490924351,
        -0.07719102756482712,
        -0.24584487097567337,
        0.11150985502742937,
        0.20602844830541672,
        0.05283526695786966,
        0.1398001714537417,
        0.09862118982515176,
        -0.03295467288823831,
        0.004062011620152665,
        -0.02488295336910174,
        0.08887564918703855,
        -0.022562438819745612,
        -0.1066787288860102,
        -0.21802015586486778,
        0.09476572196091461,
        -0.03351209134596934,
        0.07453855652772141,
        0.04439485908486516,
        -0.006023448110420976,
        0.10687732189610469,
        -0.1023214499975368,
        -0.5280215325606168,
        0.07479599201626169,
        0.034096958022739834,
        -0.08933699498440313,
        -0.032996560479818735,
        -0.07876760864297397,
        0.11842735707306763,
        -0.08171648280109362,
        -0.015750312342422072,
        0.016393684961866824,
        -0.09789240308713981,
        0.2128084817326493,
        0.010022362907310492,
        -0.08125470037230434,
        -0.03342108856611864,
        0.05336347744564104,
        0.02128894418244679,
        -0.10818239877370543,
        0.05945292400506224,
        0.03427858289366235,
        0.15534738984721042,
        -0.0033301111401598826,
        -0.022327618805389318,
        0.09651590773312728,
        -0.1365363441229502,
        0.022053667720857432,
        0.07143344578984503,
        0.14432292294405707,
        -0.07528258877249948
      ],
      [
        0.03336504080645757,
        -0.09499405152811129,
        0.030073194486535056,
        -0.07080206519181804,
        0.0920784662927061,
        -0.00572455720764471,
        0.12073361327441987,
        -0.014710585025217002,
        -0.017703368710572258,
        -0.041187340530053865,
        0.06068760626620608,
        0.0537806009261984,
        -0.019083336963992708,
        0.06122855522369441,
        0.08515046811794424,
        -0.1398464896440982,
        -0.09686925575786233,
        0.15227646632313835,
        -0.10377453399005072,
        -0.04314212778403509,
        0.11747456841328033,
        -0.4104738643503875,
        0.025605632406485605,
        0.09071377993092353,
        0.042313447844004516,
        0.04391745909893954,
        -0.09448925197516034,
        0.034545402483395,
        0.09679206878709329,
        0.04377563186158725,
        -0.18127864355213782,
        0.04190046499496893,
        0.0064382956528315025,
        -0.046606657449002706,
        0.08816077041313167,
        0.10527376292333421,
        -0.10331471504622965,
        0.03784819643322519,
        -0.9729518099750671,
        0.029623686950190388,
        0.09233823373219938,
        -0.028958876779334307,
        0.12959578574157773,
        -0.0541666459831162,
        0.00626344639815865,
        0.014187691388188504,
        -0.15378591332447114,
        0.06171680485122007,
        -0.03610760467319593,
        0.09724398813745376,
        0.0897460940191542,
        0.1674473730114345,
        0.10853779236002373,
        -0.08795070176685207,
        0.04727693261822531,
        -0.004300086648395686,
        0.14546446783810968,
        0.1029614127597003,
        0.05984222077594698,
        0.057333933753692,
        0.025250219335413,
        0.20832034524940102,
        0.058870566498253674,
        0.013986893020089337
      ],
      [
        -0.07509507048341565,
        -0.07828056835005129,
        -0.09040018553618716,
        0.01553089042198061,
        -0.06464854872562047,
        0.14916499035020545,
        0.20812786849079395,
        -0.05047137366545029,
        0.12398795648058314,
        -0.1150326454550041,
        0.0689391567662287,
        -0.0591333831763602,
        0.04623609394878329,
        0.08739297824718652,
        0.08282140422455686,
        0.20038971362210356,
        0.45884646975010834,
        -0.19888166150931363,
        -0.0981722062379098,
        -0.2321281014726602,
        0.2378781435307568,
        0.16172629504456454,
        0.1261279277008197,
        -0.2912058270870254,
        -0.0658944060890346,
        0.18600462353272487,
        -0.4831672561135824,
        0.04309340836763605,
        -0.16349244451245135,
        0.1263749398425085,
        -0.20674438543494897,
        -0.13531637609076225,
        -0.2048209664832659,
        -0.1721134857370277,
        0.15985885381327505,
        -0.4080455680323105,
        -0.0386638918132006,
        -0.025041747072262126,
        0.322420914828765,
        0.03136592747784242,
        -0.1438888000607279,
        0.003067927284463141,
        0.011837247021916875,
        0.006432413455786424,
        -0.3009480145245775,
        -0.09919200415670112,
        -0.4372437944584953,
        0.08822839095708766,
        0.10606795606996207,
        -0.2669766055866031,
        0.41314280733007147,
        -0.2870225541378389,
        -0.22602226825504962,
        -0.07618202533137511,
        0.16636576205569434,
        0.09098113220943473,
        -0.014040486606335759,
        -0.11299984310765135,
        0.20359168467552596,
        0.100020905767394,
        0.12213507604488577,
        -0.054383612755738386,
        0.041786274952636315,
        -0.28642156358107196
      ],
      [
        0.09643812439144603,
        -0.08468398315493811,
        -0.05405518230080128,
        0.1012950027143331,
        -0.04807242722622302,
        -0.11745443757350567,
        0.03059547779731594,
        -0.09280398983059157,
        -0.07290029387399562,
        -0.05645155350895728,
        -0.1001804371892379,
        -0.1263284890938097,
        0.08283338011804685,
        0.007834391834852752,
        -0.09331703639449455,
        -0.024009339228532444,
        0.07067238614209849,
        -0.08927885885530026,
        0.08544919303974295,
        -0.0930434007126498,
        -0.0299170015692366,
        -0.033255950785460224,
        -0.10336897342579306,
        -0.023866350395718633,
        -0.07886482870106493,
        -0.00038363370408822694,
        0.06640059300386862,
        0.02877367057091737,
        0.10982864030158236,
        -0.07591275098034769,
        -0.04082352651382098,
        0.006229043153857547,
        -0.09307323283058488,
        0.07108592791768517,
        -0.11074022806463038,
        0.0436736796834543,
        0.1211244469969635,
        -0.08030413988699928,
        -0.12099634942850353,
        0.018051223780153922,
        -0.06784313469974182,
        0.030155278320148873,
        -0.11584502540345055,
        0.07706044187605547,
        -0.05378730893896455,
        -0.0967844718632918,
        0.09078205112382749,
        0.028862111674975453,
        0.06769851306519263,
        -0.09331073682214813,
        0.10488784861665779,
        0.03657808414013307,
        0.031133664614555905,
        -0.06111690796653946,
        0.04644276938216153,
        -0.04260870476344654,
        0.06792489476879258,
        -0.10409417213622775,
        -0.04992283180184634,
        0.05762596308594598,
        0.030605666280137913,
        -0.10299732577488076,
        -0.004128485027862233,
        0.05408325103327684
      ],
      [
        0.06069771837203171,
        -0.2515467480561075,
        0.036894625890364977,
        0.1217595452373786,
        -0.06688007754726599,
        0.1564122081523716,
        0.013974089891248804,
        0.10856771164176841,
        -0.03238330161131036,
        0.011315303120645385,
        0.12632019038324818,
        -0.11215779379687141,
        -0.02810976958147318,
        0.10384486013979644,
        0.07163423143141595,
        0.07761993980306982,
        -0.11052220428566066,
        -0.8155948129593655,
        0.07462357565622328,
        -0.10639096906537986,
        0.07119707239425613,
        0.09362986166781916,
        -0.042068469193619014,
        -0.04544356234385301,
        0.10899262446807179,
        -0.0006672587897664075,
        -0.1644089771336551,
        -0.2550921622097257,
        0.11762706388437724,
        -0.10980436159880332,
        -0.09296192636927059,
        -0.11587217742371322,
        0.06414714412581858,
        -0.051311007686172846,
        0.03977484322186625,
        -0.062006330561240344,
        -0.09835836176308636,
        0.07053903250253173,
        0.11871525004286759,
        -0.00538049825717016,
        -0.0333603069484722,
        0.1524736907981914,
        -0.017982510871974187,
        0.12062354874110545,
        0.08509398726450934,
        -0.06116485409422428,
        0.1125879562404755,
        0.09167299972633623,
        -0.005550015504589961,
        -0.08318244793648685,
        0.20223075599887852,
        0.08593616978353139,
        -0.4983836430898568,
        0.06607367481413137,
        0.09070543050553038,
        0.05580119513724768,
        0.004492037783920436,
        -0.010837751499416636,
        -0.11533311631922472,
        -0.14765743202536255,
        0.03744376321775333,
        0.015156608403214008,
        0.008250590086971113,
        -0.13541775677952322
      ],
      [
        0.06409714364081451,
        0.1530263345902857,
        0.04325605418805097,
        -0.108387127023243,
        -0.07105775328420884,
        -0.054628883150961045,
        0.11575018775875094,
        0.03373367293770628,
        0.121005989828567,
        0.06388031643361144,
        0.06800065470457946,
        -0.04600974593948693,
        -0.002627996649803694,
        -0.08337007239599535,
        -0.041136813723657815,
        -0.01228617031185645,
        0.04263465089694344,
        0.03872811842470801,
        0.10324762310573882,
        0.028197532647664007,
        0.07652901070729208,
        0.09109571847547014,
        0.11685876418047333,
        0.067241834738354,
        -0.10024517391418943,
        -0.05145934891341657,
        -0.09065200695059301,
        0.11313522441226492,
        0.11246695127161159,
        -0.034572874857408634,
        0.025983434605669396,
        0.029274864378283496,
        -0.03265994143886839,
        0.03368752900586381,
        0.03879120170667913,
        -0.09171548864715877,
        0.04364793913406115,
        -0.08248495857167076,
        -0.10631740648511967,
        -0.05781176501728953,
        -0.0185028889508288,
        0.13230808794542065,
        0.009057203609997854,
        -0.04714478056310262,
        -0.052569254051057376,
        0.0695597606658285,
        0.0713801596394846,
        0.0615027202782574,
        0.06185347673246789,
        0.05924162637529248,
        -0.12872795395190817,
        0.0629577668098527,
        -0.10578939037136008,
        0.051302189226391036,
        0.06785505339167151,
        -0.044503621192471976,
        0.08361074011590348,
        -0.02674332061144026,
        0.12805978331636772,
        -0.07036525274893617,
        -0.052749512809206874,
        -0.08266590867623497,
        -0.01882472165559295,
        -0.03542060840129293
      ],
      [
        0.3262400113810981,
        0.06890135662668276,
        -0.07196220852386452,
        -0.2868922108242357,
        0.3017965950698349,
        0.26303964397203833,
        -0.03105883160148153,
        0.6312913553119521,
        -0.19893125671592646,
        0.05859631392348792,
        0.07182267373575782,
        0.29486339331394196,
        0.18487887237417916,
        0.15169303192588446,
        0.13600107283692905,
        -0.36367397889618697,
        0.29087672212552335,
        0.19805363244716442,
        -0.1395094501954961,
        0.36503849705120944,
        0.4456761375893471,
        0.2006610121511385,
        -0.39631865353069945,
        0.3432045878034514,
        -0.20851085068347772,
        0.26133596318189023,
        -0.19405245213149713,
        -0.05842361706149279,
        0.3413905298261908,
        0.24207819155451932,
        -0.24674127285308192,
        -0.25021703821937064,
        -0.26174898023963816,
        -0.16559863755843374,
        -0.2205904571892673,
        -0.44440634952464647,
        0.3319638187727415,
        0.374666866683544,
        -0.031626128996950206,
        -0.016541831104022988,
        -0.4391579462819934,
        -0.431796925414596,
        -0.1294570700690816,
        -0.4020394202271344,
        -0.2057320187959156,
        0.4672200447926922,
        -0.608318557084753,
        -0.12345546178490537,
        -0.08821842160836073,
        0.08519617235915228,
        -1.155290150795153,
        -0.18768111189859737,
        -0.001733156361316864,
        -0.47670779320626333,
        -0.09858549893255476,
        -0.024692398383596017,
        0.19951693889441446,
        -1.3649755393496772,
        0.03760273119549939,
        -0.06667792617425432,
        -0.8071081380189543,
        0.21729882912163886,
        -0.07059427877176365,
        0.6588518653024726
      ],
      [
        -0.0934939442942305,
        -0.03149070338249457,
        0.1014721223240191,
        -0.08288427729393588,
        -0.14301326353833924,
        -0.10448685445670226,
        -0.016992565921216677,
        0.10690052067111903,
        -0.05355457144944,
        -0.11934522286496932,
        0.01225268621024049,
        -0.033152481736576346,
        -0.04926595545808021,
        0.0046130893310040305,
        -0.10532852434483969,
        -0.07159217365224231,
        0.01545815279106226,
        -0.12407927053187913,
        -0.14526260758077664,
        0.05756990409936082,
        0.109698082825381,
        -0.018632152338095474,
        0.01579589310054748,
        -0.10623460714381115,
        -0.004733433587422453,
        -0.07332984083295782,
        -0.11072760986776124,
        0.09845442660944746,
        -0.058477426274971794,
        0.08387568085361244,
        -0.0556988807355693,
        0.003513700842588676,
        -0.05694346950710096,
        -0.08601421995544689,
        0.009573962711853345,
        0.005235953866692941,
        -0.03839432275184715,
        -0.05198440455979619,
        -0.09173598217390519,
        -0.09492062746519196,
        -0.11244575385111867,
        0.0860327701830245,
        -0.03680415614827156,
        0.054190080316374664,
        -0.014206047308182982,
        0.07814294767031663,
        -0.10653735150174408,
        -0.09994734097258096,
        -0.12211360580464482,
        -0.012838280192326995,
        0.021410204613066978,
        -0.03064895450877647,
        0.06548336390802645,
        -0.06402262429769204,
        0.11815481837530313,
        0.02366261550852691,
        -0.03418294174064577,
        0.11118632156576978,
        -0.02939853308948137,
        0.07402751525044525,
        0.07899384493754724,
        -0.038194476493718654,
        -0.022561822197727163,
        -0.007242278838596683
      ],
      [
        0.10354862429036209,
        -0.16665322044075428,
        0.042958651153043786,
        0.06558645754302636,
        0.10820036816103326,
        0.029470680389176298,
        -0.10012630347889658,
        0.012895549510134892,
        0.012163080379231752,
        -0.04792867310821468,
        0.13299187000224472,
        0.04948247626880086,
        -0.05729200433857457,
        -0.13234366541426432,
        -0.028646784661362654,
        -0.422902679426454,
        0.14948410628667244,
        0.036744696757675874,
        0.06100193635416541,
        -0.15103528347041206,
        0.06311332875826967,
        0.03699548307455912,
        0.09135008720225184,
        -0.13665363523569649,
        -0.1279552603936454,
        -0.06287738819775855,
        0.19057580783800038,
        0.029923700616463933,
        0.047932599274077906,
        0.11726919155741665,
        -0.13079965546585612,
        0.0686769373745343,
        -0.002767118440870619,
        0.05501344378687545,
        -0.06531045985915362,
        -0.14416666657299246,
        0.14177561520174314,
        0.00493241683311962,
        -0.07297009526490529,
        -0.10252840852014683,
        0.0519168512248784,
        0.043609372821235226,
        0.022197326341468822,
        -0.0909039901697294,
        0.11594826768307209,
        0.1624634381064555,
        -0.5866802679447715,
        0.09512251100986269,
        0.043939876890489137,
        0.09556176988011275,
        0.06278526817659875,
        -0.03620897245859529,
        -0.010760052989067086,
        -0.08864228740370078,
        -0.03447470651130427,
        0.15338257017585158,
        0.005310250816416322,
        0.02844557599904934,
        -0.06319247241784724,
        -0.06215591570532419,
        0.09969758759553529,
        0.1268660151294161,
        -0.014878028977279315,
        -0.17117587594033357
      ],
      [
        -0.011495210800840676,
        0.03959900987841402,
        -0.08393024752339688,
        -0.022584011753589872,
        0.05221571164652456,
        -0.17058286522334923,
        0.0902567585307738,
        -0.06429413382345602,
        -0.011360543642685675,
        -0.13438173286575086,
        0.08859697234803648,
        0.18885017667888745,
        -0.024099898941596833,
        -0.03601616178398285,
        0.03500564899233952,
        -0.26645419038643287,
        -0.007050225569555223,
        -0.005834526795425266,
        0.029077382779427938,
        0.06761791904143381,
        0.1824960263313057,
        -0.2544978043411439,
        -0.05188478317064827,
        -0.03947134777293184,
        -0.05895369412415126,
        0.10104577191264012,
        0.049672557463317286,
        0.0025488534847846246,
        0.11142946473385872,
        -0.21738533806712504,
        -0.0073552019738053085,
        -0.1270071376417251,
        0.11157055819180073,
        -0.11702691264905479,
        0.08883976578598965,
        -0.5661701314236036,
        -0.0521153115598708,
        0.12391933612132612,
        -0.28195545925334004,
        0.11155756309883953,
        -0.01703779974540057,
        0.0016708807412756607,
        -0.04832337967112234,
        -0.06645318735844669,
        -0.005931751727841826,
        -0.07734100396493632,
        0.0961755598662804,
        0.08530468303550746,
        -0.003265394424811874,
        0.005297721223352679,
        -0.14936274814085296,
        0.07893718393963174,
        -0.07351612613392548,
        -0.03746247576339373,
        0.011690948093709264,
        0.013459033609286712,
        0.017945261902923688,
        -0.054118214109871825,
        0.05947353405596294,
        0.0026237700694699746,
        -0.07561109087363062,
        -0.6333454200018462,
        -0.013821848412272462,
        0.028698368824337222
      ],
      [
        -0.002516692627616287,
        0.014968509912802222,
        0.02540947578601433,
        0.18750624524688517,
        0.07851230526230496,
        0.1121734096109943,
        0.10041784981660913,
        -0.01477241720573424,
        0.07512244650556398,
        -0.038621137235787896,
        0.05565749135358097,
        0.05039008561467593,
        0.04403105461552014,
        -0.0713553603889329,
        -0.11957244700398978,
        0.016718157189387503,
        -0.07476022629471477,
        0.16184995188885914,
        0.09122663227557228,
        -0.045322344846266634,
        0.02982061322340837,
        -0.005385640787245759,
        -0.09939297028806252,
        -0.06113574184617753,
        -0.07369134650372579,
        0.131406986604949,
        -0.1907360589469783,
        -0.036446363610172984,
        -0.18790148148614447,
        -0.13477399833811599,
        -0.0068780149738925985,
        0.05623656618697489,
        -0.13645806065351127,
        -0.0430056838459577,
        0.014379499781659194,
        -0.09750796696688527,
        0.0726210363088498,
        0.01912439281667785,
        0.24449308985853505,
        0.06442628724464332,
        0.1022730189399305,
        0.0494612662199806,
        -0.055159472111020666,
        -0.12946027226194223,
        0.03510263900221988,
        -0.1166990641559115,
        -0.029276146863393342,
        -0.05487190290114482,
        -0.034277572015914526,
        -0.05150712543280448,
        0.06882797773587364,
        0.12835509887022684,
        -0.15238659948270664,
        0.06928884596116495,
        -0.14785672237628245,
        -0.10258422671422737,
        0.13122843455475555,
        -0.03939481607811437,
        -0.16279918521501693,
        0.08509279925766096,
        0.09682028185822175,
        0.022570934773103186,
        0.2656593748200965,
        0.009585618817761755
      ],
      [
        -0.3267124622264136,
        0.025353333103211615,
        0.12774439050009653,
        -0.04208080487352859,
        0.07266383911614266,
        -0.20197140070660421,
        -0.0014170539149328326,
        0.05790266808784126,
        0.006107381965957368,
        0.009925012107129916,
        0.013125495946291895,
        0.11456824489287912,
        0.026961932931371953,
        -0.07129485518797057,
        -0.11840863577869076,
        0.01753324993683873,
        -0.08110137626724877,
        0.0729243098690499,
        -0.07697382056561165,
        0.10289341383240173,
        0.15454551742773234,
        -0.13704657966628667,
        -0.06673962267505415,
        -0.05967724335519697,
        0.021504495871346,
        -0.21533913896623372,
        -0.09325877621725598,
        0.049756505585364534,
        0.10093727692459731,
        0.11348785346384878,
        0.036108327772686376,
        -0.05406055524560359,
        0.14889354966139962,
        -0.03416696531464979,
        -0.08541221278215544,
        0.10303339277073177,
        0.029607843172430502,
        0.026410407034106596,
        -0.01857219188297342,
        -0.1709191076682038,
        0.1106803295061489,
        -0.14846341469417784,
        -0.030645256626724095,
        -0.05477729676050759,
        0.0935443867060387,
        0.10850523619538585,
        0.19045724623158475,
        -0.03561612392397584,
        0.00906632598531267,
        0.27526717235899845,
        -0.11350749526742376,
        0.07650140915364137,
        -0.06274858607014867,
        0.08147981151418732,
        0.025536941402408208,
        -0.061379444762826356,
        0.0626629019570914,
        0.029728630766962128,
        0.02920730504032197,
        -0.2901706546048791,
        -0.143518001545268,
        -0.1147185414411013,
        -0.11631097549428221,
        0.2248133085315591
      ],
      [
        0.20034261382928692,
        0.06006750047821438,
        -0.21370703539252692,
        -0.10913577447071275,
        0.07263203047824497,
        0.7503542036156121,
        -0.04282832954716032,
        0.04255018432814451,
        0.07391096525442793,
        -0.1929381372831856,
        -0.07238822989606461,
        -0.12392894436146727,
        0.13907013113912217,
        -0.08557110610575107,
        -0.06462428037440689,
        0.1960408779557718,
        0.0037031156912495093,
        -0.08297064311515162,
        0.21938227791021883,
        -0.006814139028039352,
        -0.1706150611022465,
        0.14757107661882266,
        0.08936508000067325,
        -0.02153964495833867,
        0.032610533263634,
        0.046503312555072104,
        -0.4796329404876996,
        -0.2662876568577011,
        -0.0413704812749497,
        -0.27041057746283625,
        0.10321068009544306,
        -0.032846299021376,
        0.018686182590038822,
        -0.07883836935685666,
        -0.01613603503717266,
        -0.4794723851085272,
        -0.0005593443488049296,
        0.06336227379495511,
        -0.18404718552288346,
        -0.2385393730476106,
        0.08337211913151181,
        0.0316210188144941,
        -0.024876285300789884,
        -0.018481364168726106,
        0.08146052172565996,
        -1.156183232161922,
        0.010199997448937653,
        0.5171538074574215,
        0.06984204770240038,
        -0.05937818143501907,
        -0.1631911131524062,
        -0.06718996369501047,
        0.12053396841087631,
        0.08310367069982173,
        0.11656478239629098,
        -0.39648471493457554,
        -0.7621561232240737,
        -0.11242901856396091,
        0.034210516068446495,
        0.2783443005073709,
        -0.0946190007381813,
        -0.8447534748639111,
        0.2144862699024627,
        -0.1817362920279873
      ],
      [
        0.16696934189987836,
        0.08463122415419383,
        -0.0364103391042252,
        -0.015233097619784064,
        0.04571525823925915,
        -0.004751800745918754,
        0.007998674844924896,
