{
  "weights": {
    "net.0.weight": [
      [
        0.3687449911444984,
        -1.9229608748288585,
        0.2882677701972537,
        -0.40703300894775424,
        -0.31874956799062576,
        -0.04641597432252218
      ],
      [
        0.4313047063895302,
        1.3288932121240955,
        0.12405219100849948,
        0.158824853842132,
        0.3915301482583503,
        0.2657392459540786
      ],
      [
        -1.7347050076328943,
        0.929708831428969,
        -0.2878245066633211,
        -0.09529659270054056,
        -0.2713110123402557,
        -0.5941320316725547
      ],
      [
        0.14941004907088465,
        -0.6215190246293463,
        -0.013206092482078482,
        0.44188839329498925,
        -0.3693596552774369,
        -0.11601973357815562
      ],
      [
        -0.8035582487756351,
        0.47994498202811287,
        -0.412238162346145,
        0.3088784109024354,
        0.18288934280597902,
        -0.5041640784014565
      ],
      [
        0.025520040663787887,
        1.4075317337545599,
        -0.23852670123549627,
        0.09331093378117714,
        0.10587927255589426,
        0.29454203388436756
      ],
      [
        1.1685587545609253,
        -0.520929597028599,
        0.3213326516147811,
        -0.002737541789946196,
        -0.3182145958585717,
        0.04645149043592248
      ],
      [
        -0.8208978939939962,
        0.6170530991476791,
        -0.18410527578428076,
        -0.2100938946138049,
        0.19548257045399725,
        -0.4013731814291078
      ],
      [
        0.5267572798843548,
        0.4016261723010632,
        0.26940599778957797,
        0.07705342256477789,
        -0.1985061814724731,
        -0.19674786751628387
      ],
      [
        0.9009943213807365,
        0.9245022103954776,
        -0.7364601197555907,
        -0.19883435956991063,
        0.20227318365649255,
        -0.4958959872293092
      ],
      [
        -0.5463378737656042,
        0.9327760356957705,
        -0.9230531760071193,
        0.3216946420213547,
        -0.3491892341336461,
        -0.4360226346966133
      ],
      [
        0.26680059797645733,
        0.5442550669013824,
        -0.2883026040585837,
        0.3995778338831085,
        0.15588776643817687,
        -0.12249286648710349
      ],
      [
        -0.545070341021939,
        0.7510746986308692,
        -0.1524279909565939,
        0.03396079687849665,
        -0.5073733029345198,
        0.06871058324718951
      ],
      [
        0.03885565341556488,
        0.2577321517398441,
        0.0016579019986129565,
        0.2735537246258223,
        -0.24081446412891117,
        -0.5270091136637705
      ],
      [
        -0.30696212130745526,
        -1.7245938897750386,
        0.2852592195611522,
        0.23881752297775738,
        0.07882561976787603,
        -0.17187974034228737
      ],
      [
        -1.0172053906611431,
        0.7519177790050547,
        0.5151318900416068,
        0.04710078796225112,
        -0.38606189349681214,
        -0.6310084090000834
      ],
      [
        -0.17685906547611563,
        0.07649124470425268,
        0.4397283170277921,
        -0.01043059152756739,
        -0.18347451066560602,
        0.02329753441532376
      ],
      [
        -0.7368699941022309,
        1.0967727938531415,
        0.37294396886882425,
        -0.21055883110054602,
        0.28385895825292157,
        0.619395549108183
      ],
      [
        -0.6832489662757039,
        -1.7364314443097382,
        -0.2931670773861682,
        -0.22548191990476307,
        -0.1650093552381218,
        0.00384288659320449
      ],
      [
        -0.14712974639534526,
        0.4952201603378076,
        1.0487456260700363,
        -0.45565645644054426,
        0.2046423567694503,
        0.2766719923696312
      ],
      [
        0.5401429595624853,
        -1.3752849421709452,
        0.676108152811386,
        -0.15688721504298309,
        0.3382767064771612,
        0.31823943169330154
      ],
      [
        0.8471556793904895,
        -0.5760360896580994,
        -0.12691583843750776,
        0.31542732168779336,
        -0.10920059744819019,
        0.4886602648891554
      ],
      [
        0.604223068255177,
        -0.22429452758397952,
        0.5651568646275053,
        0.2962267393174886,
        -0.44939971881969826,
        0.43140026843057766
      ],
      [
        1.1629168459541108,
        1.9289180897746272,
        -0.9993197827318082,
        -0.0040302373263493944,
        -0.3561800698333899,
        -0.3532495186720364
      ],
      [
        -0.4719472934110684,
        0.22063456205582654,
        0.8071919680964678,
        0.4027447436715508,
        -0.16477515272465934,
        0.06728512363697571
      ],
      [
        1.12630405287172,
        -0.46500553063112327,
        -0.17697905814283105,
        0.21949824384632272,
        0.2985919579550931,
        -0.004631635438901782
      ],
      [
        -0.21659568040291,
        -1.6183971389422165,
        -1.0212620949186622,
        -0.3869357006135074,
        0.027753372300133753,
        0.4271413371796021
      ],
      [
        1.0991572029629135,
        -0.0326912082894237,
        -0.20396157145265278,
        -0.2914874785071891,
        0.3802296648670272,
        0.4264416272465857
      ],
      [
        -0.4042589288413029,
        -1.1889320248206572,
        1.0043410741486973,
        -0.1629314257294719,
        -0.38562894115554147,
        -0.0023351999738636152
      ],
      [
        0.08429261590608178,
        0.14057550539595468,
        -0.3384836345878554,
        0.4123621898819448,
        -0.3420692109421436,
        -0.42532270926994226
      ],
      [
        0.2745086715663973,
        0.6166439885632676,
        0.14588701337632773,
        0.41228466080545034,
        -0.1570965223457788,
        -0.42137563502060443
      ],
      [
        0.49639628155792515,
        0.08778230435919977,
        0.4402272019854498,
        -0.054354560372835675,
        0.36036749711587024,
        0.4342095294722546
      ],
      [
        -0.26657380456944635,
        1.3357302728891705,
        0.36230076147554785,
        0.010607387709664275,
        0.41985020220580155,
        0.006104845412104722
      ],
      [
        0.772634766875201,
        -0.4478551306335583,
        -0.4228930153117438,
        0.1364918362140878,
        -0.029540682004494168,
        -0.28073948246227776
      ],
      [
        0.406099952856,
        0.08818906508218378,
        -0.5502626151967772,
        0.08579059256311568,
        -0.5423365874279216,
        0.09184726874330588
      ],
      [
        0.7435936096343394,
        -1.4403971215893097,
        0.07066282142605759,
        0.04236455659211108,
        0.4287323690288398,
        0.4053239442310334
      ],
      [
        0.7301268294836107,
        -0.9969503992559193,
        -0.37578928889360474,
        -0.39474999188358,
        -0.13374619446968483,
        0.022223331600339985
      ],
      [
        0.32696441455918457,
        1.3026088162830087,
        0.6145797201055526,
        -0.32938570816851015,
        -0.28801973705525674,
        0.16294095442353773
      ],
      [
        -0.8390841971420522,
        -1.8809175730405943,
        -0.33286698308051577,
        0.36527977589355726,
        0.31020520497143084,
        -0.14948676801271454
      ],
      [
        0.5937967998820742,
        -1.3246693429583505,
        -0.6101690686572541,
        -0.129779233721451,
        -0.1904366076095216,
        0.47959195889968426
      ],
      [
        -0.49586174254956844,
        -1.5971833869099714,
        -0.25443486034785195,
        0.22820953424735968,
        -0.26597354408063356,
        0.06008993553494853
      ],
      [
        -0.30672867211844934,
        -0.28966971318313517,
        -0.4204875984031482,
        0.21938749507534816,
        -0.3124251675507213,
        0.22868685914847436
      ],
      [
        -0.053258679439493,
        0.3147536846984093,
        -1.2392191866550781,
        -0.23774752281229647,
        0.11558531429019146,
        -0.6424748305671616
      ],
      [
        -0.08070525384075225,
        0.10635920405170328,
        0.3660467480170626,
        -0.30017034270540865,
        -0.19134200000900908,
        0.42146731854323866
      ],
      [
        -0.4401756197949647,
        -0.09348043871753485,
        -0.7314439718252259,
        -0.38773767756616595,
        -0.01905477887354779,
        0.11646228720498641
      ],
      [
        0.12501429022845978,
        -0.7971805047716153,
        -0.8953885500749995,
        0.1980430684256471,
        -0.3536105870401083,
        0.7563037364074926
      ],
      [
        0.7977656478299089,
        0.6741187288686494,
        -0.3035340195779777,
        -0.2654101285975661,
        -0.21482603923651383,
        -0.23735822576839805
      ],
      [
        0.7939041699903474,
        -1.5215916665389777,
        -0.6085372437880231,
        -0.09558598289159538,
        -0.30981248484345997,
        0.23123169780061145
      ],
      [
        -0.685752625477995,
        -0.5905167744177564,
        0.22005648571971514,
        0.1673305792496261,
        -0.2802555273580811,
        0.08578328582865687
      ],
      [
        1.1470572008277102,
        -1.4583642301616437,
        -0.7207740953758328,
        -0.3313914250903483,
        -0.1851353114033137,
        0.24140573177415758
      ],
      [
        0.09876953550943211,
        -0.07254575974602885,
        -0.5642713026355815,
        0.17770414601482665,
        -0.1586259062215072,
        -0.19539720662885324
      ],
      [
        0.29436778885636217,
        0.8977605214523532,
        0.21982614468160486,
        0.23278617701345283,
        0.3795006102090653,
        -0.3976417115611946
      ],
      [
        1.042385858139447,
        0.036038476797591264,
        -0.7416914523765755,
        -0.28757277229881617,
        -0.05569986389949422,
        -0.6367312999951988
      ],
      [
        0.25642730854653967,
        -0.17890932565719941,
        -0.7511385952965001,
        0.4060832239133301,
        0.35956892963025694,
        -0.1588737769260243
      ],
      [
        -0.21712266814874345,
        0.8790510567932667,
        -0.09488822809967039,
        0.18244084128840282,
        -0.17219847027558635,
        0.027539504259411235
      ],
      [
        0.5258097912009714,
        -1.8515568154584139,
        1.0076568746729406,
        0.2960130170201819,
        -0.13096020201492276,
        0.4381754549445611
      ],
      [
        -0.920545616494328,
        -0.2620750944048241,
        -1.1105652963467683,
        -0.19593747921351384,
        -0.3081399874335829,
        -0.5284336578384939
      ],
      [
        -0.06690836693323876,
        -0.5662957172645805,
        -0.027185924334836433,
        0.31699106553450235,
        0.0674191872912593,
        0.2370164667735327
      ],
      [
        -1.0321979825062548,
        -1.048268282918609,
        -0.12433790136642107,
        -0.34606425868099844,
        0.20407098726407893,
        -0.27721422290202186
      ],
      [
        1.2334490897082273,
        1.1332474682061275,
        0.24313894508916253,
        -0.30186816995494625,
        0.29664338018614844,
        -0.15823141699298277
      ],
      [
        0.15401696237203702,
        -0.75692565899366,
        0.31841167495258654,
        0.36678082547871527,
        0.3097375990924173,
        -0.07384698512526665
      ],
      [
        0.20175655080257016,
        -0.2546477407822074,
        -0.44192714108655623,
        -0.41658723727841857,
        0.14454797144927115,
        -0.6433978045837898
      ],
      [
        0.4572272555191162,
        -0.8061034035807412,
        -0.5459234133980378,
        -0.5495929405035107,
        0.35159327370637933,
        -0.07838107226760488
      ],
      [
        0.6736802056062227,
        0.3392231485177984,
        0.7146595099031595,
        0.17876663408978574,
        0.2721700119955012,
        0.21854016368750506
      ]
    ],
    "net.0.bias": [
      -0.32852039763318397,
      0.12346072828710591,
      -0.18789873681710648,
      0.18508229703732054,
      -0.24943816980299488,
      0.46229084981803203,
      -0.16864436396059462,
      -0.1938792030095774,
      0.2398785746887378,
      -0.6633446188062494,
      -0.46888820691038247,
      0.42497225055095733,
      0.12161577049662423,
      0.031735441259534994,
      -0.10603327293836873,
      0.34167769477507987,
      0.26401946433491963,
      -0.23790789798814668,
      0.2142142556347163,
      -0.5415019336542803,
      -0.283735672730853,
      -0.06302089105627252,
      0.38877045448965564,
      -0.1244856822146315,
      -0.39581549941189265,
      -0.06131891996757519,
      -0.5978539679703327,
      -0.3111227194786505,
      0.21824682473007737,
      -0.3301074945391183,
      0.13232198814553703,
      0.42097232855654465,
      -0.06798155985048981,
      0.012825581391445916,
      -0.28767403738050973,
      0.1740231571581973,
      0.344858944975857,
      -0.40813224875607873,
      0.1799747756962632,
      0.18398757677389713,
      0.17114268050659268,
      -0.3963838544140457,
      0.27790508995841806,
      0.33702784389778195,
      0.5508100500565918,
      0.1511891143184781,
      -0.16208200739336723,
      -0.46757232718880215,
      -0.28896516410489337,
      0.0061881628471305745,
      -0.5553117735655226,
      -0.243334024731866,
      -0.22445265159512712,
      -0.1009952494669777,
      0.278156036219297,
      -0.47623976136123863,
      -0.015634444945158206,
      -0.571630200181884,
      -0.3099058472095352,
      -0.3386093971301387,
      0.4892300297998055,
      -0.25536142847445287,
      0.49465149042487533,
      0.39938268710471087
    ],
    "net.2.weight": [
      [
        0.057647560166604946,
        -0.11207056762964163,
        -0.07698599650877012,
        -0.046835828637831485,
        -0.09304969433991582,
        0.08543631883456206,
        -0.1325303753046859,
        -0.04974421666767647,
        -0.05957513190899699,
        -0.07033643090207492,
        -0.11862758109278508,
        0.0549061384845587,
        -0.06720234238766144,
        4.06285718474576e-05,
        -0.008542517681982602,
        0.08971763623278196,
        0.01014221517680055,
        0.044447791529425976,
        0.099477697337598,
        -0.11987266982689034,
        0.0943263594286212,
        -0.10730806481153561,
        -0.09899570464021684,
        0.09563186801048837,
        -0.06109022377551809,
        0.02693595170027066,
        -0.0419772276331655,
        -0.08001532376042472,
        0.0663473215325347,
        -0.004823315940211246,
        0.006844615471178597,
        0.012421129522512325,
        -0.07030069854074836,
        0.00035299197813275007,
        -0.0756501408174855,
        -0.07577104577277517,
        -0.07395133450098652,
        0.11540414636195957,
        0.046077777510898005,
        0.0773436219704582,
        0.05281708095439543,
        0.056692209493715534,
        0.07824416782703393,
        -0.07886082890569601,
        -0.07652538751965754,
        -0.13404356553866498,
        -0.10926458716466701,
        -0.041134053464563836,
        -0.08175360078284244,
        0.06422672444035535,
        -0.023617641368044676,
        -0.09471053170182253,
        -0.02297125509725021,
        0.09333563929313704,
        0.09518575495458265,
        0.025552886408377204,
        0.019012877622299317,
        0.051288981710121355,
        -0.06571779258066902,
        0.10071429785746426,
        -0.0969933210810193,
        -0.10619814502252553,
        0.0015654152936408722,
        -0.13368655715061184
      ],
      [
        -0.15738891135548222,
        -0.11289914877987105,
        0.1840268285808219,
        0.019264183803716226,
        0.06038913924411535,
        0.0020456510975028013,
        -0.03417386323547268,
        0.07580184039352957,
        0.050589014580756986,
        -0.017066905997415196,
        -0.16950780650166145,
        0.08129079929840417,
        0.0036079861216445604,
        -0.03473988024353723,
        -0.03912436323878597,
        0.15919607327226176,
        -0.037643557462888645,
        -0.011667731004357548,
        0.15891948636785494,
        -0.19483735811969968,
        -0.08956379743151018,
        -0.060861164872397566,
        -0.024213320606705446,
        0.005844991934905408,
        0.04329406199834453,
        0.016708515147649768,
        -0.3966747958267183,
        0.09354964112492796,
        -0.10473424964203414,
        -0.02192747709437838,
        0.061300236841363064,
        -0.02878097566723223,
        0.09436876121037774,
        -0.26975744474341834,
        -0.023488004542714068,
        -0.0012772920081008594,
        0.04116594742513401,
        -0.0528992007271299,
        -0.043844006472340706,
        0.07537958083556738,
        0.008187805700117956,
        0.04079666448903137,
        0.09465995485802478,
        -0.042197409104474295,
        -0.10619554577874515,
        -0.03572019856182404,
        -0.20049907448989093,
        0.15323748846821525,
        0.14828704241171176,
        0.24955522398850155,
        -0.2758080927959383,
        0.13021946340831078,
        0.1434144807979384,
        -0.16705613517988244,
        0.041523141700527,
        0.09399274311271359,
        0.06306949779369449,
        -0.05415439199854629,
        0.15110011200691265,
        -0.032994191089109254,
        0.10207370024191689,
        0.04764145399687358,
        -0.095344861611248,
        0.004336881630871332
      ],
      [
        0.06689853453637068,
        0.1077084134568283,
        -0.02472174238832509,
        0.03892235738237631,
        -0.053671811569525295,
        -0.08665199249132066,
        0.07218585891930222,
        0.06834525893524908,
        -0.004955429086038692,
        0.045387528953623406,
        -0.11126923530223448,
        0.07319797420940594,
        0.012324516481921158,
        -0.061519946885718296,
        -0.1317052174855226,
        -0.07738273898080446,
        -0.06959327403555333,
        0.0045147374174323955,
        0.112220292086528,
        -0.056390538547591455,
        0.08819130211447922,
        -0.19532213497830997,
        -0.22181426050810296,
        0.0608311792646329,
        0.14390722225990238,
        -0.1381222790771897,
        0.02829448119321505,
        0.09110552650933781,
        0.03272861069983461,
        -0.050788570564670975,
        0.14471193245575487,
        0.09440679095284417,
        0.030544906253319074,
        -0.041121428308680034,
        0.004570433248966202,
        -0.13232874981926407,
        -0.09541833468929684,
        -0.09229686532357553,
        0.036398064475314185,
        -0.10646866691355411,
        0.14771753951775338,
        0.07559204018387106,
        0.0825019767618857,
        -0.17122615842728417,
        -0.03850112341759522,
        -0.018534576226916392,
        0.020765163677752288,
        -0.10520784231319949,
        0.1058112614177175,
        -0.04144602177691784,
        -0.5482098568532251,
        -0.00707165867778719,
        -0.05408113814257998,
        -0.12344416508767897,
        0.013033640424497357,
        0.11316221320871693,
        0.24246370190250519,
        0.09074895785615365,
        0.0979186001197102,
        0.13051611499420462,
        0.050590019839063895,
        -0.09308343628533154,
        0.04645707490924519,
        0.004342899955264453
      ],
      [
        0.03728721008792379,
        0.05008955641460635,
        -0.07546030797204736,
        -0.007232594312940243,
        0.017166022760908953,
        -0.05553202621256809,
        -0.031071866596376355,
        -0.06949420074436653,
        -0.14155848861988685,
        -0.04919870270218106,
        -0.05597845218402788,
        -0.021523619228364946,
        -0.020517163051528717,
        0.08179021303196507,
        -0.07763528131187401,
        -0.03438111798779572,
        -0.14305071274597944,
        0.027619903756430135,
        -0.13745007978303425,
        -0.11763478022794342,
        -0.09386964972250456,
        -0.14424709905058433,
        -0.0874491049552278,
        0.07585982909842066,
        0.02662865394265466,
        0.05964860409391022,
        0.045053420339658326,
        0.10242307015150302,
        0.10016203560715085,
        -0.06020677103729955,
        -0.1421868362052147,
        0.027232322024390663,
        -0.009750933140638404,
        -0.02846757609033395,
        0.08370294883678744,
        -0.12684785678983077,
        -0.056088960003626696,
        0.08549265266885765,
        -0.04488898762333635,
        -0.039903514236996444,
        -0.058179553237474514,
        -0.09715206523570434,
        -0.12363735909395705,
        -0.009977939736535553,
        -0.04611496826451266,
        0.08134067887725713,
        -0.015521206019510578,
        0.0008697485770022187,
        0.07096902124575999,
        0.021524257700862023,
        -0.10835812260926557,
        -0.08085327185647004,
        -0.13392965407004148,
        0.08420959228915668,
        -0.11075782829226102,
        0.0632451421082783,
        -0.08706033355476286,
        0.09069047113391362,
        -0.04755599872515884,
        0.03505108340386706,
        -0.0747604558405444,
        0.015210424294561,
        -0.10013313228271613,
        0.03574414335467748
      ],
      [
        -0.46783920790992495,
        0.17893806626814004,
        0.8709900097012077,
        0.10752366755344177,
        -0.14272930305950146,
        0.06949070270266072,
        -0.9359370349007456,
        -0.2425320355065436,
        -0.05810655514618221,
        0.09428992411505813,
        0.2803147485404023,
        0.15368209931849022,
        -0.5532660926400516,
        0.21567156542345794,
        0.054652060747193795,
        0.2111342174003783,
        -0.35650982114867413,
        0.14366298166161245,
        0.18025618928627388,
        0.03414007519681384,
        -0.34850258328442785,
        -0.07811236771726966,
        -0.16961496395157044,
        0.09003511812321353,
        -0.11094616552493151,
        0.22841184930497296,
        -0.036384566847289156,
        -0.16449195135625938,
        0.48567162050203544,
        -0.17903717513682377,
        -0.048107098577226344,
        -0.05523533461706758,
        0.14489552610409995,
        -0.1011555347725789,
        -0.6214129277485075,
        -0.08444846465878318,
        0.21374296862017536,
        -0.007398577778377716,
        -0.1145819598398465,
        0.1075412538153409,
        0.040745590895057096,
        0.2263141748310378,
        -0.11046997829053579,
        -0.06939489110741519,
        -0.0848294560789406,
        0.040820790785441256,
        -0.46832055307026677,
        0.07370542612669077,
        0.061511762057058286,
        0.16325429941327574,
        0.08518834436653219,
        -0.0642196149179746,
        0.32278655115644966,
        -0.053868981999578104,
        -0.06933609434563326,
        -0.1999054135576187,
        0.42360783387484635,
        0.09204112640078677,
        -0.34040398135750105,
        0.4479083691232077,
        0.045232486456120956,
        -0.4555008557822585,
        -0.0005303742345477306,
        -0.06411009017050742
      ],
      [
        -0.05195767206279702,
        -0.037836108221639776,
        0.053834895015426626,
        0.07098911145772213,
        0.017292308526328903,
        -0.09323861799452149,
        0.09926557937697918,
        0.01518039019817326,
        -0.014692426171109552,
        -0.026418466921780896,
        -0.12492842630676593,
        -0.044519565909053156,
        0.03334136970830362,
        -0.03674095804178538,
        -0.13697272506013342,
        -0.04001332587699673,
        -0.03386213488295703,
        0.023311544572454615,
        -0.04702240228935274,
        0.04457033709031261,
        0.06529786069611043,
        0.0045354603958191915,
        0.09253394528042094,
        0.1709092498081507,
        -0.07923126404948698,
        0.06564867206185217,
        0.007487923745584696,
        0.13651353724310153,
        0.12180788491662226,
        -0.07140242226334459,
        0.0933462176398073,
        -0.10114676933054721,
        -0.006733446661935533,
        -0.015762526674529587,
        -0.269936874730694,
        -0.03382115511729097,
        0.11831786229442962,
        0.010486443390204318,
        0.06031881646030334,
        -0.0016292685481527256,
        -0.0005763817128746386,
        -0.12833896751441903,
        0.06461702113223776,
        -0.07254703216009094,
        -0.10682996361614368,
        0.05966585786166078,
        -0.07372823341793676,
        0.08242998582128246,
        -0.010310797593257922,
        0.05624266264508461,
        -0.1805854266920919,
        -0.08658146984716555,
        -0.08311733579554406,
        -0.04796743103751723,
        0.05604115849799674,
        -0.04210415337122138,
        -0.004888427302249034,
        -0.1016922941175626,
        0.09043492507994504,
        -0.15963756897165246,
        0.12211136830357165,
        0.03498345818278201,
        -0.01715721486587978,
        0.10519445208112002
      ],
      [
        -0.14423672470638352,
        0.12221913540114843,
        0.09342688552510271,
        -0.013285171961857307,
        -0.02030565025168817,
        0.03940272969577187,
        -0.4335738785219544,
        -0.14998685585615587,
        0.013179184899794928,
        -0.10799070317421038,
        -0.02593158575294803,
        0.12253958265901836,
        -0.08344146246561183,
        -0.12583693156870013,
        0.09695749245004046,
        0.07056322708634591,
        -0.17544864694482018,
        0.02492323288993091,
        0.04086340174337158,
        -0.09882993316317515,
        -0.20290324635206997,
        0.030339172732841507,
        -0.17146163019470909,
        0.09260042690228253,
        -0.06470327798851003,
        0.12892717297242925,
        0.021408150641569916,
        -0.07864825243900715,
        0.06174985100987949,
        -0.08105518114010647,
        0.021354497100860154,
        -0.0191310648916783,
        0.0408802611101023,
        0.07854571111615034,
        -0.1462885700661621,
        0.09478812054722205,
        0.16526969507540976,
        -0.01533962277776985,
        0.02332587960261735,
        0.05087508966963254,
        -0.12815790792175974,
        0.020137072596887358,
        0.008188667856508984,
        0.07725711326410344,
        0.19207626690239646,
        0.022004702551550022,
        -0.07385038468762625,
        0.16371371493658804,
        -0.10744799323702559,
        0.18808790097063716,
        -0.017503588234985434,
        -0.03867816685616317,
        -0.01075853813778235,
        0.014421337672793706,
        -0.11956007381613266,
        -0.04952798967635049,
        0.16313459197146182,
        -0.10802312196363739,
        0.05138795523176739,
        0.07099766841361012,
        0.08747106173365933,
        -0.015490593641995936,
        0.15777966966266949,
        -0.12259686974307032
      ],
      [
        -0.036919773047436086,
        -0.08078803014661236,
        0.13517111384132044,
        0.09103176599119642,
        -0.09723822250648312,
        0.009133096766596942,
        -0.11046902835955072,
        0.16179940559136857,
        -0.07988745877104275,
        -0.5276005239729782,
        0.14204810051825484,
        0.09413096081455245,
        -0.011908432075049128,
        0.08063443082242303,
        0.11748059014619217,
        0.023682616193874885,
        0.003580247975642079,
        -0.0619959876451034,
        -0.06753531106255761,
        -0.18499631327207053,
        -0.014489450151867402,
        0.06116179443647453,
        0.024755118752840442,
        -0.16074778325530606,
        0.09278598658333806,
        -0.12547192588171216,
        -0.04737851684211742,
        -0.3276455196395649,
        0.015719271930015166,
        -0.021675935496512755,
        0.0038678039145043077,
        -0.0571859760336397,
        -0.5767631459463651,
        -0.032772714943423015,
        -0.17789575279457492,
        0.06738068927891891,
        -0.15162691052247165,
        0.11467014951156537,
        0.03319559023254572,
        0.03435034599857431,
        0.10680307423304113,
        -0.0068165675260863316,
        -0.09312099200192003,
        0.012639674968471399,
        -0.05351035186919056,
        0.013578135782510421,
        -0.14471166840845212,
        -0.005721263894328583,
        0.1075654496708455,
        -0.05941934117407645,
        -0.05595873045979418,
        -0.10204584676634228,
        0.1966611363873901,
        -0.032112634109272405,
        -0.015235495336704572,
        0.10351081942957198,
        -0.17926166922392173,
        -0.11351731845898781,
        0.1220993674379273,
        0.9875798961033,
        -0.04359227928066969,
        0.22379578782308782,
        -0.13754044598684778,
        -0.12339938522947375
      ],
      [
        -0.09272876252797974,
        0.0626768951070116,
        0.050934581257753096,
        -0.023581140832460875,
        0.06436885679033569,
        -0.11282723073173702,
        0.05844447433385857,
        -0.09228119230599752,
        0.0779839342485025,
        0.022967245854212833,
        0.040655872781271626,
        -0.04531305828210509,
        0.021153135924856174,
        -0.06632658649825926,
        -0.10986211034198273,
        0.02372201879261479,
        0.08361587157608537,
        0.053891100725314396,
        -0.08075950948996947,
        -0.1036915528521041,
        -0.009901121982834514,
        -0.146823698916764,
        -0.1021166395130314,
        -0.10517897276699884,
        0.08922302941364489,
        -0.037536389992324275,
        -0.035655378218920925,
        0.09760766196332281,
        0.11044359292089398,
        -0.06550808700109664,
        0.11373768186856253,
        0.03271620846580144,
        -0.047634085910773366,
        0.006775604393349518,
        0.03032273552772594,
        0.034178638425228704,
        0.07603739297612347,
        -0.05016125855558648,
        -0.10875278601895337,
        0.0082944619777426,
        0.08416326004618065,
        -0.034834028559466115,
        0.06530781269206365,
        0.05455047121969536,
        0.041676636758932524,
        0.01826500069614727,
        0.0641219879654625,
        0.08882267018650981,
        0.05225881272766297,
        0.1403320852128035,
        -0.024147346866644243,
        -0.11968516325387146,
        0.006833861025985076,
        -0.0342553672424549,
        -0.07287095276905141,
        0.040274160457175724,
        -0.04748092033377817,
        -0.17585728280124532,
        -0.07767487513456331,
        0.07788641386636992,
        -0.10401392296485125,
        -0.004825478579074614,
        -0.05276170698830383,
        -0.1408399137338841
      ],
      [
        -0.030614366376023865,
        -0.007823869902577298,
        0.12982416694989318,
        0.07742163170705606,
        -0.01780243918301163,
        -0.13226413342439106,
        -0.12280177659766633,
        0.021863155758314105,
        0.03889525709470865,
        0.03422649570398479,
        -0.019059834376206314,
        -0.16031943462740675,
        -0.05432988928408624,
        -0.03201523081641569,
        0.01956490479240311,
        0.11797818938948405,
        0.14736124365428802,
        -0.027223707545221222,
        -0.03343102407645534,
        0.005986654868507645,
        0.03827485857149956,
        0.13707055185035386,
        -0.0852605313909495,
        -0.10527020622952156,
        0.1381078526154507,
        0.025020255458290324,
        0.08805489853359535,
        -0.06366945569442393,
        0.11052736343090643,
        -0.0866190506147588,
        0.003880944180958385,
        -0.16741165619333515,
        0.08059076923385328,
        -0.11111866058785876,
        0.018354055826432722,
        -0.06507018717532813,
        -0.0787973033226703,
        0.09594648195227967,
        -0.0021313620490331763,
        0.09400050963423755,
        0.16123397561234648,
        0.11850339194818775,
        -0.11584281859312512,
        0.012995877460405144,
        -0.06224872432408583,
        0.12289561425846747,
        0.052899316795892645,
        -0.03976275156604104,
        0.10127750769764116,
        0.08712592537146689,
        -0.007949609921718821,
        -0.2118361856728622,
        -0.19240378070334316,
        -0.026472221215951802,
        0.025435265671226108,
        0.08049108233068261,
        0.11117416572965631,
        0.023843753277965996,
        -0.05219606569018647,
        -0.047183866952990365,
        -0.1530361450741667,
        -0.08622272908565999,
        0.07832310512159225,
        -0.02849256348872269
      ],
      [
        0.18953461555218343,
        -0.19618910926718947,
        -0.30354456150900017,
        -0.03608235102982559,
        -1.3704898714349734,
        0.06513771324596815,
        0.08132517772354442,
        -0.1436398716969849,
        -0.13626649212200573,
        0.11724738024551344,
        -0.1597915710247174,
        -0.24985959701438915,
        0.28202174148678455,
        -0.23040475226929777,
        -1.2907217018225727,
        0.13579416727088248,
        0.15052128284919827,
        -0.1958573073510073,
        -0.0016955524308710594,
        -0.20531208843535206,
        0.14767748988374324,
        -0.2832759321179581,
        0.13377341561206352,
        -0.1788219185394331,
        -0.01881178146325498,
        -1.5467338588020507,
        -0.17941003332776473,
        0.19259111791970976,
        0.11443431933126041,
        -0.17108345512445552,
        0.04928543476092779,
        -0.003222688183672374,
        -1.1703456502930571,
        0.29798624480600794,
        0.1403613881593971,
        0.010905671317968033,
        0.26435872080475337,
        -0.21243652337596086,
        0.8769758709709883,
        0.08835420822692397,
        -0.1586819196018755,
        0.12690468483339007,
        0.09595138537688436,
        0.1623727392829959,
        -0.03399590408478961,
        0.04004903311865893,
        0.2765021124886548,
        -0.18515550115505766,
        0.10804198652453598,
        0.40664424268253346,
        0.01535723381317701,
        -1.0938172624449776,
        -0.586392402266746,
        1.0497008629157145,
        0.004798285170391749,
        -0.2106690182261846,
        -0.13127826836702552,
        0.5813130761395877,
        0.11803907949294794,
        -0.22674336190918648,
        0.007955086100276237,
        0.1819512004231659,
        0.13649353261334513,
        -0.05409424733781757
      ],
      [
        0.1530441970358157,
        -0.016656628189739474,
        -0.5427957263487871,
        -0.10144083285294773,
        -0.09586883434340056,
        -0.014883570913199359,
        -0.0504743186090641,
        -0.07010707754199214,
        -0.14572420473640166,
        -0.41900130588688755,
        0.06540915477763008,
        -0.10246181081256864,
        -0.17947732751423334,
        -0.039794921162442785,
        0.08989901067161297,
        -0.24273340848994712,
        0.20518475813538842,
        0.038348469525727,
        -0.10607260304173478,
        0.09708932253466868,
        0.20402060279154136,
        0.08679681812930903,
        0.10684642991492582,
        0.10229432447186883,
        0.03923074389675537,
        0.021675714816483196,
        0.2306013375669233,
        0.057976483704819684,
        -0.37768978883805093,
        0.06517748216555057,
        0.016238853025978058,
        0.0419055060544484,
        0.027709133404176804,
        0.017509522878877064,
        0.010566275725035653,
        0.05483892046308883,
        0.13062158138213123,
        -0.18537753076595304,
        0.007418240974743471,
        0.09606424079729121,
        -0.058403259566023616,
        0.028165968296915957,
        -0.00020104496135195285,
        0.06386837684388305,
        0.08382074252148296,
        0.017387439235398636,
        -0.23968530026481363,
        0.22048223036928527,
        0.2237511361242819,
        0.07152511681354572,
        -0.06061406232578741,
        -0.0102332133242467,
        0.09763529793032912,
        -0.07327242386149187,
        -0.016817595059981868,
        0.06521776729431929,
        -0.38647779855839437,
        0.11632453207318666,
        -0.12608613124675772,
        0.18447382825352965,
        0.08986677834769001,
        -0.2958644215130172,
        0.24040673502377996,
        -0.018517455942417157
      ],
      [
        -0.08968968176519854,
        0.07870321826544817,
        0.2119388614209021,
        -0.0924694662292475,
        0.0035019698321480017,
        0.11520148103492266,
        -0.09594388747251292,
        0.061329786194429324,
        -0.037895911808471155,
        -0.009182812141991896,
        0.09874450128481062,
        -0.11666468123972755,
        0.007234270163362072,
        -0.138800007878757,
        0.18328345016956377,
        -0.07407772748256133,
        -0.014905236783977354,
        -0.05916266688491792,
        0.08257167698232504,
        -0.06686264558551425,
        0.09896387057289666,
        0.08686658126042407,
        0.0381335254459729,
        0.03246332085030698,
        -0.020737242673547984,
        0.010421401479118127,
        -0.32687749758441326,
        0.05717516053847096,
        0.04362964479433488,
        -0.04089721696313149,
        0.07175059587169114,
        0.05129940179713834,
        0.010119213147457297,
        -0.18459508983114892,
        -0.019481111438002758,
        -0.09171954250145802,
        0.12731012624745566,
        0.2876157727602672,
        0.01774082725190457,
        0.23490295376372414,
        -0.08210603379425867,
        -0.11004009050222646,
        0.08878865523505858,
        -0.08380115125958752,
        0.04224217572644514,
        0.01042485734640388,
        -0.33784784666839907,
        0.1754827831792887,
        -0.03623117420221358,
        0.07371264982939152,
        0.18059334159982052,
        0.05075472324415917,
        0.11847533376791743,
        0.005949402622088167,
        -0.0817177671958626,
        0.10886794181190541,
        -0.0960331731262126,
        -0.018317056779848975,
        -0.11295338742549366,
        -0.07513102237350619,
        0.02176516958097597,
        -0.031620423964546666,
        -0.04768702389572531,
        -0.032457622210056505
      ],
      [
        -0.7122543907122835,
        -0.04889643065528561,
        0.3529357164968012,
        0.03353021632780559,
        -0.0077934418823603375,
        0.02348728763871895,
        0.129864237511342,
        -0.05411759073247338,
        -0.11173503774595137,
        0.09200213292610598,
        0.0635111166907671,
        0.080658362956263,
        -0.3276026782829844,
        0.09683622940070663,
        0.13177920392344,
        -0.022438875183222014,
        0.07575702285552452,
        -0.13611026008518465,
        0.050515274923032476,
        0.048319278674949714,
        -0.021368420286301818,
        -0.09796728021649959,
        0.02313618542557729,
        -0.1456929579082929,
        0.10384131422176515,
        -0.06578939598716665,
        0.40964181932476845,
        -0.01077353693179879,
        0.3621371779934174,
        0.038783775525139445,
        0.0384213416133624,
        -0.08335701972884618,
        0.09561200059352097,
        0.01794608407021703,
        0.24636858830998012,
        -0.11438049893261606,
        -0.024518131050792497,
        0.6061966149581545,
        0.12160452029542307,
        -0.22167419259086357,
        -0.06362388162163744,
        -0.1523493231462553,
        -0.014746424810733006,
        -0.6464966513576835,
        0.008446030504292684,
        -0.04495936118289849,
        -0.10905175410290037,
        -0.6267263497811046,
        -0.08026646268259528,
        0.19823803895404202,
        -0.04082943315818219,
        0.07606455915710185,
        0.1062313059998907,
        -0.023742443590375018,
        -0.0573643655616135,
        -0.1046146453576411,
        0.16580475908938647,
        -0.11847528688790857,
        -0.3062276581910532,
        0.013030543476885006,
        0.06651297389915808,
        -0.03779635229388306,
        -0.023259938700467643,
        0.010875968972996326
      ],
      [
        -0.038504762189600056,
        0.11496801481783796,
        -0.40207843414823763,
        -0.0004577774932069025,
        0.034803511482995084,
        -0.03742687055364293,
        -0.08098841424526618,
        0.24042087662006148,
        0.10126252365116596,
        0.2796753015748185,
        0.006683271864392536,
        -0.0982288232228631,
        -0.13697921615534656,
        -0.13562469329148144,
        0.11201455281106912,
        0.051886470650681235,
        0.04541789871003876,
        0.21629833836726028,
        -0.04194872397251065,
        -0.03212963416816421,
        0.025741993637314456,
        -0.05346085736484185,
        -0.026452855335722544,
        -0.07885906349752976,
        -0.014338834962559112,
        -0.12009491034673934,
        0.07898209290051689,
        -0.15962595815276645,
        -0.09113933657836565,
        -0.026049322584206776,
        -0.04376478694899325,
        -0.023463790422451104,
        0.08942155901604158,
        0.034649647541112785,
        0.06683766134941256,
        -0.120846579879577,
        -0.03219060429635149,
        -0.0021142801763337216,
        0.08814649405483985,
        -0.08913307085653702,
        -0.10219688229756116,
        0.07269224415845847,
        0.46771566551319416,
        -0.05060570168642564,
        0.01939630242072403,
        -0.12309945811093458,
        -0.02737278365673628,
        -0.08653134488195657,
        0.026443953268494955,
        -0.09022242230775995,
        0.020817185376764583,
        -0.03869062748475391,
        -0.17469074128711076,
        0.10596339554666138,
        0.06795029747094017,
        -0.07193236989950426,
        -0.12584912449246125,
        0.08730176284360766,
        -1.0018262726851705,
        0.16036275475545453,
        0.06067674952684577,
        -0.4702213543247212,
        -0.34183975987467524,
        -0.06049163992510147
      ],
      [
        -0.057822710703347394,
        -0.04919782843486007,
        0.20027767252287645,
        -0.04398433191456336,
        -0.06738440847161599,
        -0.18040828199166867,
        -0.7438448720917866,
        0.03274606069082172,
        0.08810142354916502,
        0.09005662658504886,
        -0.04565023201644622,
        0.0674094628940487,
        -0.2818448679927742,
        -0.009029834829358641,
        0.3117466719657556,
        -0.09229829026363667,
        -0.0507333370161428,
        0.06230340065845947,
        0.13202774188290647,
        -0.011387842149283154,
        -0.09682357285775893,
        0.08380118294173958,
        -0.06923519064894063,
        -0.03322280155012973,
        0.2227946315964242,
        0.10857983996361179,
        0.1009123342759316,
        -0.041356046704846564,
        0.1397844021921301,
        -0.0863119106023328,
        0.005724679195802143,
        -0.07116488944850421,
        0.026186978601155535,
        -0.13143461723547187,
        -0.30114841291423944,
        -0.03203706505408359,
        0.16743878864856232,
        -0.02973551158141149,
        -0.10581713348637298,
        0.030471408822909215,
        -0.010954129175826725,
        -0.009681740959957977,
        0.09260395269623022,
        -0.10793004669321189,
        0.12142014729383933,
        -0.2210872116535528,
        -0.09775758786266822,
        0.08379731759806146,
        0.19671941295368855,
        -0.05827904677085112,
        0.2072134263218818,
        0.02515885544099558,
        0.22518616393503454,
        -0.057741640518532894,
        -0.1060290624378523,
        0.24180237756747325,
        0.04388013524036642,
        0.020641311965691488,
        0.06254208082441716,
        0.1612525751751239,
        -0.03861548513014426,
        -0.024688584063322826,
        0.11249812388837803,
        0.06564878230312715
      ],
      [
        0.020590676565478166,
        0.06995630124946549,
        0.13163782509418412,
        0.10310350943941603,
        0.01840936165535133,
        -0.04919451971067973,
        -0.043358083476761136,
        0.0958334237185182,
        -0.18035177297541535,
        -0.001922219742310028,
        -0.019736086751136434,
        -0.538381902925318,
        0.07479740326792325,
        -0.06206355506771931,
        -0.2594476333832759,
        -0.10670313790262644,
        0.0021918917218342444,
        -0.01603667452951161,
        0.03892119590502678,
        0.09882249330502636,
        -0.17299305506489096,
        -0.10311837197668978,
        -0.022960023559222276,
        -0.06788093277218128,
        -0.050997737524221175,
        -0.03564638276571392,
        0.0005982098655375631,
        -0.1405422265642549,
        -0.04282602631541375,
        0.029924797954391527,
        -0.0627225686098431,
        -0.2538784819942841,
        -0.13654572808891927,
        0.09773497679295147,
        0.10379707318413428,
        -0.3594192917380213,
        -0.016722406722435298,
        0.07543508775762985,
        -0.03272663539391194,
        -0.06788687194449179,
        0.0862813469369185,
        0.06534987043783515,
        0.07851256435067945,
        -0.017662043548809975,
        -0.06457661022827638,
        -0.0105161304913737,
        -0.02664501447432314,
        -0.0021704801759852756,
        0.09044321381150608,
        -0.07115451630954972,
        -0.018586448858268077,
        -0.08640799651963296,
        0.0983898196797341,
        0.3030188240599302,
        -0.030089905333003857,
        0.07037087575372931,
        0.13486612597903858,
        -0.2055563954414783,
        -0.007339509953651176,
        -0.0373616238524192,
        -0.16890050466041914,
        0.10660963114412766,
        0.08532629256191811,
        -0.1307616827725704
      ],
      [
        0.10992183105925078,
        0.07945425243736272,
        0.1868068166162061,
        -0.1346092475559208,
        -0.027247333600926765,
        -0.023454605679827444,
        -0.3418585407718022,
        -0.10263307685874624,
        -0.150412283932152,
        -0.031394838501867466,
        0.036194559628400826,
        -0.055301505903516394,
        0.36319174095898704,
        0.025376235718575335,
        0.13686610950004077,
        0.17350925484181862,
        -0.12770225303093755,
        0.014532463969240279,
        0.07317131240552936,
        0.02241098116425369,
        -0.0033474279048075063,
        -0.012546103313038046,
        -0.12259150875589636,
        -0.17116113284089124,
        -0.02267712577478801,
        0.07075895342266725,
        0.011655671369492828,
        -0.010122799246743218,
        -0.08382964403232614,
        -0.08103364862780245,
        0.08552886853474398,
        -0.09043296309847208,
        0.04718344574821829,
        -0.22767666599668557,
        0.1594832649696077,
        -0.04558390192679965,
        0.013832198728478403,
        0.07857726542110248,
        0.09447154194989732,
        -0.06217340948649518,
        -0.32633778431849503,
        -0.20856557649678736,
        0.14235852489813564,
        0.002659612233152549,
        0.1562498108581425,
        -0.14953925865765894,
        -0.024627880031290215,
        0.07505131943996031,
        0.02657558282632883,
        -0.3149242539477244,
        -0.16437888078496649,
        0.11918461865967174,
        0.040915368154412234,
        -0.011031236167679872,
        0.038056655217842315,
        -0.022442002486850732,
        0.010317527497286556,
        0.09830194846875669,
        -0.10070115791765974,
        0.055021857649082184,
        0.09355301952865254,
        0.021607813074919855,
        0.03381248817795924,
        -0.13381034664099897
      ],
      [
        -0.033479155719064894,
        0.10505934758601843,
        0.026280132301189855,
        0.013947146469020249,
        0.011305311362883501,
        -0.053817382339662156,
        -0.0027545460493554937,
        -0.052351676098540995,
        -0.04219514138412809,
        0.057313736033109776,
        0.08229370479698518,
        -0.0062304298655948415,
        0.1079348327008379,
        0.10427823605801952,
        -0.02982325264011399,
        -0.028529213060685555,
        -0.004567148661138211,
        0.05552024243583491,
        -0.21133228574077936,
        -0.007992147784607348,
        0.02409547224091323,
        -0.049244763951612903,
        -0.10635463533245644,
        0.025818484058521975,
        -0.0614628848395299,
        0.06035861298960198,
        -1.5775120408914203,
        0.08898687590016614,
        -0.056704766626136646,
        0.034707968770324574,
        0.03056676014388531,
        0.0848725550428325,
        -0.11497325821769715,
        -0.06309046443386533,
        0.018970946501875773,
        0.02078494800675642,
        0.07817548110144838,
        -0.0795634303564496,
        -0.024159297967606293,
        -0.0011128808450278256,
        -0.051646633046316094,
        -0.1030459590628592,
        -0.07128082151735311,
        0.05288427258966796,
        -0.062400172696250866,
        0.05038367125259592,
        0.0741353312488896,
        -0.13126846541509413,
        -0.0033076405694502774,
        -0.023876684108438236,
        0.004507374788557123,
        -0.09227160999713237,
        -0.008226268794092053,
        -0.1434133013569611,
        0.026637285835475956,
        -0.08377858877743662,
        -0.10028533814692758,
        -0.13506216256895517,
        -0.06619821469446338,
        0.0007129759223122588,
        0.05935007168417516,
        0.015899167084026635,
        0.132269071722323,
        0.07003651148136547
      ],
      [
        -0.07993806826548024,
        0.1088295107376786,
        0.10542077241675055,
        0.03953998195202507,
        -0.012800286234362301,
        0.037973616610987186,
        0.0986118763356857,
        -0.04195197251852499,
        0.062355716293362624,
        -1.5528344909009895,
        -0.13966718803820574,
        -0.032526509673044664,
        0.015465180081307338,
        -0.06731534209824883,
        -0.048930443006768534,
        0.0912136280623891,
        -0.06972349897049035,
        0.7068408907088265,
        0.003525158356860068,
        -0.8959732526101876,
        -0.35983516522134373,
        -0.057051724407258086,
        -0.10863605341291394,
        0.07242178979012223,
        0.08246848401152801,
        -0.00791374056878526,
        -0.5227725446497892,
        -0.22639128670994915,
        0.016999789905277746,
        -0.11566272957090487,
        -0.005593696063740589,
        0.04401481714829726,
        -0.07270999072960771,
        -0.004046800093802469,
        0.015733420538949917,
        -0.1856978204837352,
        -0.1948719762558273,
        -0.1140266757735382,
        -0.08534603571978988,
        -0.2525797766717415,
        0.1569681743860952,
        0.044000215742461386,
        0.3154001243609236,
        0.04471215843376168,
        0.012140257216208745,
        0.09092871326844053,
        0.09129123240379215,
        0.07884140225780599,
        0.07553289490395394,
        -0.3758004927396924,
        -0.021014892714215097,
        0.028486618334756294,
        0.05644394992520927,
        -0.08359358306751041,
        0.028209369463212244,
        0.07342761544385136,
        0.1351752590956544,
        -0.06444641138700155,
        0.9744766426355453,
        -1.2158399842953371,
        0.06537172019485635,
        0.6139155475354942,
        -0.1407981090968587,
        0.12515277153899715
      ],
      [
        -0.06018397828703965,
        0.008717518970724137,
        -0.03207440738942269,
        0.10665978723794742,
        -0.06660185409977235,
        0.03148515726637312,
        0.03885541742633199,
        0.00402202931011608,
        -0.09059771813895136,
        0.1364491382890997,
        -0.09218246855274682,
        0.10815011281942057,
        0.012504921639468567,
        -0.07661855650421588,
        0.09897727530594773,
        -0.08930029385234352,
        0.043237369415553395,
        -0.10792725103569106,
        -0.020494478475579444,
        -0.050032340811953305,
        0.030061746618937322,
        -0.0058438961718702475,
        0.1084253887114384,
        -0.03498107514355275,
        0.11117709527764379,
        -0.0795013873064376,
        0.08026216047333413,
        0.00564571217716326,
        0.0543856420355902,
        0.07451753075362205,
        -0.03712702585548093,
        0.05336228143903171,
        0.10792856840027275,
        0.030606642026572064,
        -0.12550063801133338,
        0.10224371724150039,
        0.032824160291190854,
        -0.07295605190127646,
        0.0013778131163442696,
        -0.1274413382198593,
        -0.08350940262359967,
        0.09028661727246075,
        0.026348071773700757,
        0.08994640775087122,
        0.004304984793774089,
        0.0745387771952161,
        0.0018009686944454742,
        -0.0243219476517559,
        0.026806711359190032,
        -0.017860674834344167,
        0.02286680030924106,
        -0.010459437407809025,
        -0.29647644016585106,
        0.142388299762113,
        0.034261426939423995,
        0.019044347093911927,
        -0.0952698474191777,
        0.10405075087789077,
        0.08099216023932997,
        -0.0821389965676343,
        -0.04271435279901836,
        -0.017163427979388635,
        -0.12253616299342077,
        0.04038335113868617
      ],
      [
        0.6085821376935022,
        0.124636767441228,
        0.03835092135069083,
        -0.07356112397911593,
        0.13205873949412616,
        -0.02758198264926827,
        -0.07305055368333611,
        -0.1177106895817004,
        -0.06928849042526727,
        -0.080536187063166,
        0.03415049436933509,
        -0.050064989072650425,
        -0.08844514522561593,
        0.06697497777985481,
        -0.0621965840747275,
        -0.05354372310897202,
        0.1289642784891381,
        0.05194590579459385,
        -0.23961799486954874,
        -0.01756620576302167,
        0.06781861381118563,
        -0.05308663176918541,
        0.09212794633322165,
        0.025741988502320918,
        -0.008439880009297107,
        -0.08565296927332762,
        -0.6319203423530503,
        0.04131515344702093,
        -0.05047505582474361,
        -0.03265858692432423,
        0.07706948077159785,
        0.09590772242027146,
        0.09272707256516155,
        -0.1072295255238797,
        -0.09474579529816955,
        0.06645506124665149,
        -0.2865255441527087,
        -0.5543153779746156,
        0.10944357525813422,
        -0.059579420178698855,
        0.0404251813825909,
        -0.12132206224957647,
        -0.06425960081108223,
        0.09097033189836937,
        -0.34748195172943125,
        0.07505875384861684,
        0.05397482955024189,
        -0.13506564890086184,
        0.12438502885036418,
        0.5612421035266336,
        0.03424224963033595,
        0.07566879700773556,
        -0.02537954104002993,
        0.09839841430489119,
        -0.06449615459227295,
        -0.07426560132694215,
        -0.1374630138195454,
        0.035322878630736604,
        -0.181677137555389,
        -0.07872618086930062,
        0.12424569796420395,
        0.004564475950855722,
        -0.14371665659973662,
        -0.055029052550463864
      ],
      [
        -0.0026745832211900623,
        -0.087593466907492,
        0.08794966018837004,
        -0.014480661952758775,
        0.07395200250529155,
        -0.17591341512299394,
        0.03296259262415254,
        0.17116208093385352,
        0.02929138358336472,
        0.1181872723606481,
        0.08656469684206335,
        -0.14272215513157574,
        -0.08457573660053604,
        0.0041146814770671525,
        0.00879671609422015,
        0.13139633135627538,
        -0.09147728314875089,
        0.09545228478458317,
        -0.3398894244704258,
        0.03313348399291488,
        0.07149927362762365,
        0.13197368376719468,
        0.01714223920951036,
        0.20027970075491566,
        -0.06396878992605942,
        0.009516971933173196,
        0.10267999085516986,
        0.2149507906728592,
        -0.15729752303226707,
        0.04717747535656084,
        0.11774708282779191,
        0.10682114573602422,
        -0.22600749335611517,
        0.12445354711509182,
        -0.08962974006420926,
        0.06875559219226393,
        0.05089322565706487,
        -0.21832623056493267,
        -0.17229134383738048,
        0.028676937916546935,
        -0.059379218156436514,
        0.10041053080179595,
        0.2304770127270533,
        -0.012514492132620278,
        0.014705521701146826,
        0.05854466128360064,
        0.13301303407099324,
        -0.017641452659114175,
        0.05869392698249865,
        0.05592480129386667,
        0.017149754888394018,
        -0.09195303659437495,
        0.1220803904222832,
        -0.04437001216872715,
        0.05176216001039552,
        0.06627348214665864,
        -0.0918406711220226,
        0.05360330902676887,
        -0.07638505304350109,
        0.07964060800565652,
        -0.06235338069334281,
        -0.01413542707496337,
        -0.03856941158801805,
        0.12119527653111505
      ],
      [
        0.02208101830426533,
        0.10580532655785638,
        0.13156414071938322,
        0.027548574674314506,
        0.12196626211674022,
        -0.052898586035401464,
        0.030469271547132765,
        0.1190684724505546,
        0.03750914957175063,
        0.04195926665138062,
        -0.0746054415240524,
        0.024598872663963652,
        -0.1811151572450527,
        0.031082255797229907,
        -0.009441904640978126,
        0.036462031172343506,
        -0.022528295119801332,
        -0.1337766016848081,
        -0.0359563419278482,
        0.04219529747491891,
        0.03973161294639537,
        0.012162564384606582,
        -0.023076832343842592,
        0.0808021388738397,
        0.037745308192932064,
        0.07227770097414235,
        0.06790428252333293,
        -0.12578455001989078,
        -0.12527778670369852,
        -0.014906688623868564,
        0.11287317147790743,
        -0.12324635965724193,
        0.1563562422604793,
        -0.10925543115893122,
        -0.061183601376767226,
        -0.21626746960098356,
        -0.04658645674423422,
        0.04121891743789507,
        -0.09290387966863248,
        -0.11804170839985709,
        -0.0781053765204669,
        -0.25545498728313853,
        -0.03690053183722727,
        0.1282700671014086,
        0.06687233230097772,
        -0.2780752623698895,
        -0.09538774381368759,
        -0.04527448429300253,
        -0.04411982961396158,
        0.013092977120623062,
        0.016467113992836572,
        0.16593432948448988,
        -0.04401781377722856,
        -0.15325889679871108,
        -0.007839429453557933,
        0.07358650478391487,
        -0.010340697425952224,
        0.021081438891958522,
        0.003034830820063342,
        0.09504123103490944,
        -0.15802117937612567,
        -0.10952613606816,
        -0.018939646828448883,
        0.13713243718203644
      ],
      [
        0.04941910811435211,
        0.06756513588569216,
        -0.05243041922943749,
        0.06846130327687047,
        0.1011109477246134,
        -0.09848790192281116,
        0.02769481662622535,
        -0.15448400245541574,
        0.012565977638834817,
        0.06605560449847962,
        -0.033626760060109305,
        0.025018347459735975,
        0.031136446224077338,
        -0.029179408416650333,
        0.009793476207717406,
        0.024931412931000884,
        0.08065164723487683,
        -0.11115139065061456,
        0.049979578776588,
        0.05745837231736931,
        -0.05264405227038981,
        0.024299988746426013,
        -0.04478313058321441,
        -0.01577290616589275,
        0.09780219142265094,
        0.11300952760218551,
        0.02372479863272839,
        -0.0603813092992703,
        -0.0364010107235138,
        0.10549682097951814,
        0.02513297486906999,
        0.09355390711544978,
        0.034536157253726066,
        0.1266361970120602,
        0.0024385367525761063,
        0.024913499962111972,
        -0.02788638120364069,
        -0.13137525567895936,
        0.01279421811067709,
        0.05420707507616423,
        0.14328879424028507,
        -0.01584913791649132,
        -0.03790673314602352,
        0.14866239661486788,
        0.05752211536993474,
        -0.056601002763328336,
        0.15840845230269757,
        -0.052076387786906,
        0.16003234338144914,
        -0.04469218013280079,
        0.07066068150575339,
        0.1600446510369399,
        -0.011520173579440874,
        0.156692252146655,
        -0.07062669631587815,
        0.03576425426643281,
        -0.05320859295527352,
        0.1847612436037471,
        0.14734420516926683,
        -0.051498068590859335,
        -0.020679919865446032,
        0.13149487962803072,
        0.10446886138319583,
        -0.088735410636506
      ],
      [
        0.115498355541265,
        -0.04817437873446406,
        0.06805607102315073,
        0.15861411050327587,
        0.012768020754421669,
        0.10578650881554555,
        0.00995382466174117,
        0.15574029865251202,
        0.24361198438076836,
        -0.07305945524355423,
        -0.21241005015727224,
        -0.0920671433630395,
        0.2182745004314149,
        0.13420122656291406,
        -0.26701814367117377,
        -0.2569856195021412,
        0.026318986713538967,
        0.11436660343065314,
        -0.20272927910961425,
        0.023624094527009025,
        0.0017091660302162477,
        -0.04384596817503938,
        0.021941195385658592,
        -0.3467424194633534,
        0.0420584766674843,
        0.036428892681967064,
        -0.00046286092845147987,
        -0.012471436629141052,
        -0.12293232620104262,
        0.020395897445296577,
        -0.127854509973358,
        -0.02290105137672904,
        -0.05357543285073739,
        0.12045740209159639,
        0.06011975887324688,
        0.07426005702814599,
        0.05221933956445843,
        -0.045180854717388086,
        0.021234830372498997,
        0.03395541359652503,
        -0.1324012626806704,
        -0.06195592693976946,
        0.07037079352309548,
        0.008569057421247394,
        0.11688735726641523,
        -0.03165967246694686,
        0.09888279107077036,
        -0.08609612655314587,
        0.251338127626976,
        0.11910999268998938,
        0.2148130446992159,
        0.055001846176591825,
        -0.016946901691356476,
        -0.09550638025559811,
        -0.018841495762285162,
        -0.03744812479710032,
        0.029051380103204676,
        0.14054771550522227,
        0.10607163364435737,
        0.0992062897172999,
        -0.026180216946128806,
        -0.07214211448088254,
        -0.10167489022429453,
        -0.019984371544619312
      ],
      [
        -0.20477064867997458,
        0.13149612162158283,
        0.2698913012379572,
        -0.009963099035992743,
        -0.10322887130587796,
        -8.144676694302121e-05,
        -0.40528137395952896,
        -0.08767553425745801,
        0.011541832209669117,
        0.08269564426606968,
        0.17098861830741593,
        0.006995654734480292,
        -0.3484942740602059,
        -0.13923025640811612,
        -0.010939434087111611,
        -0.05745662906510712,
        0.027762127266552365,
        -0.2812027433771257,
        0.15534924179889256,
        0.2236241910292762,
        0.0603177430206505,
        -0.05326237345404348,
        0.04234441507851935,
        0.08604098709091862,
        -0.0865043203224239,
        0.0967182429995244,
        -0.05568236814101035,
        -0.22788091846104833,
        0.18926082230462496,
        -0.1810448717247563,
        0.10492921836819827,
        0.03642474462829568,
        0.1586145500796893,
        -0.09867677507242495,
        0.10441702276678697,
        -0.1337809908387844,
        0.09367707285740191,
        0.19771861678938688,
        -0.025399470378748366,
        -0.07442689106181609,
        0.17485928586406127,
        0.06623126375195823,
        0.11002159873874659,
        -0.16348631489440782,
        0.13648877987162616,
        0.03883174016243105,
        -0.25925377787202136,
        -0.0880354466943594,
        0.002627162044698003,
        -0.1313627314086587,
        0.06788957755131168,
        -0.11991976424094905,
        0.2663124099771353,
        -0.046550138088039206,
        0.09968787126433186,
        0.21923833786349864,
        0.08591909350527363,
        -0.12308109032970957,
        0.1095253741870633,
        0.0801098585702137,
        0.06535576604575627,
        0.16654103548746138,
        -0.04168662618323417,
        0.057474546358024695
      ],
      [
        -0.11927848642417017,
        0.09349540111152846,
        0.042257986086269975,
        0.025101688770410423,
        0.05787039698974479,
        0.03654987525463993,
        0.0610288281573737,
        0.09768595906320474,
        0.0831698496871272,
        0.21503608661604828,
        0.023969029215233077,
        0.0024561487744784102,
        -0.10921878252011452,
        0.07808160266275968,
        -0.012688171134627993,
        0.11275993385487218,
        -0.07190634084644842,
        -0.07773906648815909,
        -0.0756561202774968,
        0.05731341623650475,
        0.30441123426499805,
        -0.003152262513964907,
        0.14432160757185897,
        0.10298992223920432,
        0.06965780858805239,
        0.05330404089851782,
        0.007013195865170875,
        -0.1621030080801737,
        -0.054653439170060304,
        0.01598950467094643,
        0.09517068414703313,
        -0.07353185304878172,
        -0.27128827228600433,
        -0.08047344307735715,
        0.14194084049990474,
        -0.18130914615570878,
        0.07936412756055508,
        0.23693106546741113,
        -0.16858802802067488,
        0.06678476663059633,
        -0.037432468017163545,
        -0.06383731561779935,
        -0.09004959260241491,
        -0.008420638355138019,
        0.054990470883647086,
        0.11190793823041251,
        -0.011941785425252018,
        -0.04584493144023364,
        0.07353663081350131,
        -0.10517494923636099,
        0.10032436820071247,
        -0.16946109128597303,
        0.21264378313174406,
        -0.01084379980499323,
        0.041406476825961304,
        0.10969634415238577,
        0.09184998364959907,
        -0.08878524194508619,
        -0.0010291396437412997,
        0.06808546569524689,
        0.048103505427836854,
        -0.009687666975954579,
        -0.013629718693373127,
        -0.10692063959069135
      ],
      [
        -0.08901448892335267,
        -0.1023848098391275,
        0.010641071937969704,
        -0.008736999609259525,
        0.011135744912216534,
        0.1621055887360175,
        0.00790115815500545,
        0.05671027368156556,
        0.011821153663880224,
        0.18459086971970268,
        0.13698531603041839,
        0.022975578648126355,
        0.012173244391142351,
        -0.10010894491338695,
        0.1107597446629572,
        0.12283275778689187,
        0.09580305831558321,
        -0.14539297074068785,
        -0.00958532489826789,
        0.03512997798579972,
        -0.009231014705150146,
        0.09743530267936087,
        -0.11981633773803305,
        0.080378054303852,
        -0.06278869223673658,
        0.07238074606675089,
        0.09279917528316911,
        -0.04190624373896131,
        0.0831150784464727,
        0.03663145548704021,
        0.04762139157449463,
        -0.08626459401577305,
        -0.08600420341859359,
        0.0683684136228268,
        0.05711499139026312,
        -0.07123786425207283,
        0.025362927412116286,
        -0.04131295098407661,
        -0.1261899101778443,
        0.049100491805432724,
        0.07285358359010771,
        -0.032125793366894584,
        0.18009152491364436,
        0.012508910388708059,
        0.10546507708081088,
        0.14105798951604462,
        0.0770737569218184,
        0.14870904545125396,
        0.012380528041304512,
        0.048658500615368236,
        -0.00691643660809558,
        0.10055220329741502,
        0.06863003511458876,
        -0.04577874133963721,
        0.043613225886652465,
        -0.02147053109812355,
        -0.06905415855437286,
        -0.013079567772141507,
        0.10786048799928878,
        0.12820286905143838,
        0.11007865933342852,
        0.12041045404409213,
        0.07594682837290882,
        -0.0915032265333542
      ],
      [
        -0.12897625114647474,
        -0.026580577196409196,
        -0.08038388133280686,
        -0.07568174979174701,
        -0.0973918162358081,
        -0.1299771645832182,
        -0.0418648783973565,
        -0.08044138511884359,
        -0.06590250143704454,
        0.04276996907646667,
        0.11382052523779411,
        -0.1012712542977549,
        -0.031014013605160366,
        0.09841533502845796,
        0.09211620518626527,
        0.013632916413150842,
        -0.12058251813177491,
        -0.049528884015164296,
        0.00854640280458717,
        -0.06382273583747616,
        -0.058630498907416326,
        0.04746697323795538,
        0.09327658637468092,
        -0.003625245956750892,
        -0.037159972581432575,
        0.01993861681831138,
        -0.10157698809203076,
        -0.09606602297345823,
        -0.00813423513152725,
        0.11920046358676298,
        -0.05072243414135208,
        -0.2694735670551424,
        -0.07795290351982198,
        -0.0048716515743073,
        0.0999021570846602,
        0.0661481490082451,
        -0.07478982898641491,
        -0.25425093144038746,
        -0.015879702243325473,
        -0.2485639714283987,
        -0.04275735464009834,
        0.08419277003643823,
        -0.28555375838189445,
        -0.1597088095448805,
        0.060290491649956,
        0.07484381648613772,
        -0.11947769274231837,
        -0.10708806710563851,
        0.007332616619695238,
        0.17545920241676932,
        -0.067658960503498,
        0.04777459195972813,
        -0.7664355091833875,
        0.05328646744157999,
        -0.08904913864536206,
        0.06458440892347865,
        0.06454577553505747,
        0.10830109160441515,
        0.022565379363483976,
        0.07836501019337651,
        -0.03383411852751833,
        0.002224733872040222,
        -0.1269117953622953,
        -0.11889041745621877
      ],
      [
        0.02161243664633876,
        -0.07022539031460555,
        -0.14524904379011377,
        -0.04654522581236863,
        0.09333561845729464,
        0.02632849820218027,
        -0.10057442571266342,
        0.00020366674434269954,
        -0.02576943494683504,
        -0.11246290280157452,
        -0.029435142114947074,
        0.024952576236583292,
        0.016704955557653386,
        0.09485037496781884,
        0.07402294691921427,
        0.03167794322981814,
        0.09247480829466684,
        0.10578310448633649,
        0.02429048421044345,
        0.09676200483466788,
        0.027050650463687556,
        0.05638406768771677,
        -0.09781695313982768,
        0.04036870539741953,
        0.0017828231432051383,
        0.04956982789773757,
        -0.4002889039941394,
        -0.14150127607483634,
        -0.07559709659732206,
        0.01204343533993289,
        0.007150307167123995,
        -0.0032547727815982652,
        0.06469518218208808,
        -0.08382361161258402,
        -0.07504922725320738,
        0.025553968227978348,
        0.09567701559694952,
        -0.06272248879593795,
        0.06611012395533152,
        -0.055035472735517905,
        0.004793945562658164,
        0.03596135988995466,
        0.03971079797849556,
        -0.10045337589479875,
        -0.06756762806175141,
        -0.11648910188822441,
        -0.003647868127174285,
        0.0970770152244894,
        -0.07155914671456705,
        -0.06579969578269441,
        0.005498424152125191,
        0.0891953233510134,
        -0.12815085847269592,
        0.0857095799558034,
        -0.03795096693673434,
        0.10414356257227211,
        -0.053979669670766534,
        -0.07144103492462946,
        -0.14550158869977248,
        -0.0577014592170984,
        0.0908281210994105,
        0.0624899884977204,
        0.051763969670906906,
        0.03721286073486032
      ],
      [
        0.10494600575041511,
        -0.011741055953221974,
        -0.018546965811205768,
        -0.017817691198231372,
        0.06432738672325865,
        -0.01829419367668292,
        0.03810278298840998,
        0.06016875344147214,
        0.06448959741306028,
        -0.028915343372443753,
        -0.07279064210151909,
        -0.10651252735469723,
        -0.025895939133845858,
        -0.10838587625573957,
        -0.11525747988012251,
        0.05365908277423288,
        -0.0031356652714906452,
        0.022269921763465192,
        0.029259968354407015,
        0.010647967749754586,
        0.0221057938344824,
        0.08828697598829448,
        -0.021657038373131265,
        -0.03930666262307378,
        0.028284213294901675,
        -0.07753313121269029,
        0.0309759341441989,
        -0.05500076927675976,
        -0.09069520648991147,
        0.015539196240770867,
        0.051255192530588176,
        0.027123741465255854,
        -0.05553153406578226,
        0.02929083455752267,
        -0.11416205692602639,
        -0.11585462515507124,
        -0.10194694511965914,
        -0.03884639653517963,
        0.0018245238191828966,
        -0.12443386551743334,
        -0.06254359204310897,
        0.07975658950762117,
        0.022936958905277707,
        -0.06407973211597995,
        -0.03583337263831399,
        0.05555562828735251,
        0.06315806602993278,
        -0.09177865528582674,
        -0.025924836125301137,
        0.09590975127773037,
        -0.011415087216851971,
        -0.04766752268741298,
        -0.09599400512702659,
        -0.09619548589523085,
        -0.05331848022141489,
        -0.07776109661161201,
        -0.07652468176634739,
        -0.07910909420182882,
        0.03141540789386059,
        -0.09066177106183693,
        0.024964461905433707,
        0.03641900126797336,
        -0.05645019137749363,
        -0.10680592165506327
      ],
      [
        0.23954120903876466,
        -0.060974867428675875,
        0.09223268209150956,
        -0.019473746794487656,
        -0.12306988772703527,
        -0.7480772777663348,
        0.11060404792847985,
        -0.2540952233351447,
        0.06374791800606426,
        -0.18864593715948688,
        -0.006604483768438245,
        0.06646556096451174,
        -0.04209886725304947,
        -0.11991028089934455,
        0.12932518650594588,
        0.08222784319329468,
        0.10246078023908252,
        -0.5073235641516958,
        0.0015271676688449623,
        -0.26836757840258946,
        -0.15888989404844492,
        -0.043047565918059735,
        0.054798866085253646,
        0.016710276575873113,
        -0.1576346196713785,
        -0.12536732901715314,
        -0.007284460979149835,
        -0.37927841717943833,
        0.1209042009079946,
        -8.213219131704632e-05,
        -0.0990168131575629,
        -0.3111442345305731,
        -0.03913971687987179,
        0.007705714851464067,
        0.07681316497521777,
        0.007993844527558828,
        0.08394128110773699,
        -0.0008410679482660982,
        -0.6987391399105454,
        0.16606463618401945,
        -0.08939225692681968,
        0.04440994147134509,
        -0.026835323939233085,
        0.0777537061329085,
        -0.0383259144241124,
        -0.09390992241353327,
        0.09260283299189144,
        0.0589626917010967,
        -0.031746605113331015,
        0.31669480590894994,
        0.03018338820546663,
        0.01098695073215827,
        0.34134038851165754,
        -1.0054785628348097,
        -0.13250341038120456,
        -0.031711297230408775,
        0.04750702515083966,
        -0.37252895421427695,
        -0.1720241691337257,
        -0.3945662607025057,
        -0.10191837227791388,
        -0.006670386103327804,
        -0.2015416260907156,
        -0.13164314491863188
      ],
      [
        -0.1329140269234738,
        0.07779842367992598,
        0.27752435355257715,
        -0.14259024815530888,
        1.0649853557693205,
        0.06223660043131095,
        0.03630339754274085,
        -0.26497659292629133,
        0.17672417020305484,
        -0.15982777074859605,
        -0.10409670528754467,
        0.0007570439572537512,
        -0.0323053016108433,
        -0.11416889273583403,
        0.543736954127712,
        -0.20232671244338876,
        0.13567813323990263,
        -0.06489699612771804,
        0.03884855738479204,
        0.036635821899519874,
        -0.263919586087488,
        -0.0767701731074814,
        0.06498865583848921,
        0.12261692861256784,
        0.024290003642046382,
        0.6514699930383369,
        0.058638053926968484,
        -0.3420475990927975,
        -0.044020454332272085,
        -0.04027371316734922,
        -0.2105306243823682,
        0.1716624603922371,
        -0.1744607221520074,
        -0.21046034786769316,
        0.001982868104733795,
        -0.21596582529291797,
        0.042356281870631333,
        0.3096860152520176,
        -0.7558002245432999,
        0.1656179202521244,
        0.08661191099983974,
        -0.1349404921985297,
        0.19748267077779078,
        0.19624318874921445,
        0.2520790570500935,
        0.25508308910046784,
        -0.47457187381121985,
        0.24349491961258282,
        -0.045587599586707384,
        -0.055650386581293884,
        -0.13715070631048426,
        0.09837986804874373,
        -0.0889855234356459,
        -0.8279082391628321,
        -0.023303974195763293,
        0.051273380424077517,
        0.027887915310632387,
        -0.32986063855080294,
        -0.03658665904507311,
        0.28621213971445597,
        -0.21833269783188147,
        -0.3290135069782164,
        -0.049647878224864425,
        0.17480916466396765
      ],
      [
        0.10048522438850166,
        -0.15494611231204683,
        0.03805477089762415,
        -0.00944401739988857,
        0.017873251889047644,
        -0.0665043946002452,
        0.12081045553733988,
        0.10461618037125471,
        -0.14187186443669414,
        -0.00908916862281615,
        -0.027790541780062412,
        -0.10690233689579828,
        0.12292312400616645,
        0.07701139470854625,
        0.03436024120706746,
        0.05731242325273862,
        0.05870942424940046,
        0.0625383168789631,
        0.05682591394641439,
        -0.13798087106854925,
        -0.027735610253596256,
        -0.10836011304804984,
        0.007278255665854764,
        -0.0392144760855047,
        0.0019647951931222483,
        -0.12208979282395924,
        -0.052518881776373434,
        0.1062185501846777,
        -0.07543131238920754,
        0.12356489023493897,
        0.020920514449933113,
        0.0029640623236201445,
        -0.008119240843106763,
        0.08441419765210732,
        0.036700429287495874,
        -0.09886295559243725,
        0.08115343213921199,
        0.06622332130567168,
        0.07829745607534633,
        -0.011375954340117263,
        0.019125716158272816,
        -0.014094365711923414,
        0.10797515441267996,
        -0.05195885790492257,
        0.09234161203825271,
        0.06682003150025616,
        0.09512144263172004,
        -0.11680042533938126,
        0.05128623744572364,
        -0.01645464831363414,
        0.10253157332606827,
        0.00859603269199482,
        -0.1444562261489433,
        0.1135221097539928,
        0.018760871178928655,
        -0.14876707492880958,
        0.13564931299349753,
        -0.09750129477052442,
        0.040905174407251395,
        -0.10279231331627824,
        -0.0599513703533259,
        0.09910372099447562,
        -0.041377504363529036,
        -0.046794183421216794
      ],
      [
        -0.08180703245469961,
        -0.04938117985029652,
        -0.008579207731411182,
        0.1225520791503122,
        0.07693656131580243,
        0.015304043267799357,
        -0.04668411348586297,
        -0.11256034855039124,
        -0.05298877120367502,
        -0.06764730243397443,
        0.09200976011012658,
        0.09719696468070194,
        0.004617032587828579,
        0.03694112740882152,
        -0.05042848692282647,
        0.044392082649004426,
        0.1110091649166053,
        0.019292809287822465,
        0.05838363576323341,
        -0.14033897725431074,
        0.0923827446301602,
        0.022976279434384416,
        0.009177378450386171,
        -0.17348100318264215,
        0.12777661207006746,
        -0.043462548127248334,
        -0.409702508276402,
        0.13387369067290902,
        0.11630547929830379,
        0.05561772087360381,
        -0.0015549202181606894,
        0.08206772442213753,
        0.11408580744134066,
        -0.03337510805820976,
        -0.0021140389889462916,
        -0.10129096226227116,
        0.006322643056672289,
        -0.03429861823275877,
        0.0976734834247425,
        -0.028708533052982863,
        -0.06629560920797757,
        -0.05855806830375238,
        -0.045664269343334965,
        -0.05215401330421459,
        0.030771412605145314,
        0.08505255784364076,
        -0.1046612755895343,
        0.10102102931590376,
        -0.06704486237074586,
        0.17513612859425795,
        -0.006359241192493469,
        0.063610948065927,
        -0.28472256423246894,
        0.11919263190675912,
        0.031627780631197096,
        -0.10489655882829524,
        0.002121127656125414,
        0.11555883460495153,
        -0.1432243836967224,
        -0.19375533454326085,
        0.0629790175344393,
        -0.06304515637499916,
        -0.10601582378693891,
        0.03354475217893181
      ],
      [
        0.17944448846254973,
        0.10482517937846711,
        0.0019192981406981687,
        -0.1653479597748967,
        0.18534457078655378,
        0.3121191457618559,
        0.3695661640414427,
        0.34371298079674867,
        0.0055291689909356635,
        -0.006660815404435889,
        -0.2676850354897383,
        0.09602593269836134,
        0.06010144251518598,
        0.15254110696591405,
        -0.036647934466922105,
        0.23453100063852328,
        0.0629621233468305,
        -0.02156239372084218,
        -0.6311900730107073,
        -0.07311730671641074,
        0.036876678448217876,
        0.0033863860521377884,
        -0.021848189154242872,
        0.2577175400475519,
        -0.4061405459470095,
        -0.16469259382104137,
        -0.17343991242127804,
        0.22313197178438265,
        -0.2761684635366941,
        0.024891789675753066,
        -0.2835187025963743,
        0.14999348940032353,
        -0.5145486448425108,
        0.468188953299067,
        0.07359761294906664,
        -0.16030460813261455,
        -0.2176719130336658,
        -0.26041809217300016,
        -0.01683925800693422,
        -0.34511543963871766,
        -0.5610666297088838,
        0.26425949534699933,
        0.33401557529057185,
        0.18025410994843447,
        -0.11541674301978652,
        0.13129155087700656,
        0.4309679149937356,
        -0.06618255756146386,
        0.3546990521873131,
        -0.17324829976579062,
        -0.29805336729525594,
        -0.22482944184644518,
        0.42733966873952894,
        0.1736841222269265,
        0.2896223836929328,
        -0.11597780037807998,
        -0.040338098823480564,
        0.32276219200577305,
        0.16671231094127606,
        -0.13161766085523796,
        -0.2224928559538495,
        0.2387832862621931,
        -0.006281179204246181,
        0.3732267104441869
      ],
      [
        -0.13906835521050964,
        0.03469875307329046,
        0.10140972087088444,
        -0.013488584162547076,
        -0.09275056369777054,
        -0.11676763541819686,
        -0.38260793108785474,
        -0.10230671580590792,
        -0.09393790398226516,
        -0.01871637496809717,
        0.008212063335032918,
        -0.04777218075408563,
        -0.16085918085636497,
        -0.0372840684232193,
        -0.07928947841916044,
        0.04496804835648835,
        -0.12140456821854645,
        -0.10410018136369012,
        0.14495966425567727,
        -0.18191285257042622,
        -0.049379259360247174,
        0.02979178611690516,
        -0.16402013252285527,
        -0.0037229253366654336,
        -0.11059440883571489,
        0.12044747706740169,
        0.10537017492852442,
        0.12545490896929393,
        -0.24177847348616308,
        -0.03850507815596795,
        -0.10472550581412028,
        0.08152085218342789,
        -0.08670748633005976,
        -0.11802692412095045,
        0.004384563590695335,
        0.16147123608253167,
        0.15879546863478533,
        -0.13096129311274346,
        0.13301400371748856,
        -0.003413057768130991,
        -0.07974378888806122,
        0.21792252834169754,
        0.20312344585896389,
        -0.12298779452540905,
        0.05564209957701056,
        0.1096768485698419,
        -0.2415934518019323,
        -0.13710241508816887,
        -0.5583619521507485,
        -0.12598469464060974,
        0.13484801855842152,
        -0.1040362152178321,
        0.19553289733923201,
        0.10907354655694451,
        -0.033650691152541976,
        0.15919800692877611,
        0.012124493513992477,
        -0.037118543112591725,
        0.0565001526945441,
        -0.1466735610090489,
        0.1373467866464025,
        -0.028563951785407462,
        0.15049737546067196,
        -0.11100238014426347
      ],
      [
        0.07786396548577436,
        0.08149972748870951,
        0.004650845763946504,
        -0.03590863735802812,
        0.022712496947562933,
        -0.12109218715841424,
        0.008882472034419987,
        0.12428860332092666,
        -0.07541107570005598,
        0.12733710038875776,
        -0.07941682284882524,
        -0.00461417347675801,
        -0.09545026052762759,
        -0.07866857485223933,
        0.16063233817081315,
        -0.018317456865498787,
        -0.13490015812352554,
        0.07049571751325738,
        0.028661638341922074,
        -0.033218350998346365,
        0.0925560009071012,
        -0.10172674416127826,
        -0.02272540154630268,
        -0.06510123343772194,
        -0.03300356266767319,
        -0.08245761025201738,
        0.09136377427205386,
        0.08314322273635713,
        0.047247894670886366,
        0.07466526963433276,
        -0.0036096406122533412,
        -0.07797882354369416,
        -0.0007065644420052127,
        -0.05585247781317684,
        -0.03933620881019385,
        0.04592000312705366,
        0.03525657526149591,
        0.014691678691720916,
        -0.09827197378937785,
        0.133154885600609,
        0.06171950150689815,
        -0.11782177612608566,
        -0.017920244863894298,
        -0.05842391008396328,
        -0.09098905810587089,
        -0.12570341577335412,
        0.10652928489451259,
        0.12958413908960537,
        0.014669003982696256,
        -0.0002507544275613935,
        -0.05786242569150288,
        0.06527945387580202,
        -0.033333659972556814,
        -0.06132662302305458,
        -0.05176050813215243,
        0.02952313276981185,
        -0.0016586049050280923,
        -0.174179633999326,
        0.08418771213037396,
        0.1223808615708947,
        -0.016912244307115017,
        0.07433946078617439,
        -0.0001341258203617689,
        -0.130433778751045
      ],
      [
        -0.17201407754275616,
        0.060970084402796165,
        0.12634760008103924,
        -4.410964355259181e-05,
        -0.0632509022616355,
        0.030526348327401358,
        -0.0740822094547651,
        -0.09423215538041194,
        0.0551921074624367,
        0.14213348822078764,
        -0.060674583204082144,
        0.043072810226699315,
        -0.11577512853260005,
        -0.011929774398055563,
        0.032712568741040976,
        0.15508508367030913,
        -0.04099348629445715,
        0.034683236092446175,
        0.021689162372778344,
        0.07290989540013933,
        -0.18388110816992861,
        0.035822622248499886,
        0.008155207811729261,
        -0.06168093292809766,
        0.11357631862298678,
        -0.012224918830597791,
        0.13739000476529217,
        -0.05944119886885339,
        -0.13444865754764476,
        -0.0028274197138496663,
        -0.025746496566018986,
        -0.09345883598561422,
        0.011041725229374643,
        -0.0031268612212911493,
        0.14164083330985244,
        -0.05911926970943273,
        0.05679358250035774,
        -0.00888830670927213,
        -0.06620596197663245,
        -0.02441800189920449,
        -0.07669843491567956,
        -0.02427484701324525,
        0.09946649268310345,
        -0.15316507727149528,
        0.12367442294079684,
        0.07530986939712375,
        -0.21679472874357278,
        -0.0409410766460767,
        0.008719684920455552,
        0.14878474079710924,
        0.08762041480816139,
        -0.07252838205266263,
        0.29261965724474714,
        0.0918644335828282,
        0.0043679257506385565,
        -0.07318833507338275,
        0.08118548551694264,
        0.023532196972544935,
        0.026445777701977126,
        0.08939760120527127,
        0.025799790523856884,
        -0.041918480854298674,
        0.2018207080637692,
        0.07027779136603265
      ],
      [
        0.03221871440194442,
        -0.29227445570786614,
        -0.17399536852530018,
        0.07544829384193895,
        -0.3531456163318059,
        -0.19077574623141028,
        -0.055474726516497624,
        0.08675921649596856,
        -0.18586330146832505,
        0.021093766125945886,
        -0.06954198369423441,
        0.06374989012341525,
        0.10388044839171119,
        0.023858930726652305,
        -0.09509924956901973,
        -0.1547396102628317,
        -0.05022240727830446,
        -0.10491739450359451,
        0.1267971315775525,
        0.06397097192490922,
        -0.030186834976555933,
        -0.14480320557856138,
        -0.17382658749548943,
        -0.29392082776831263,
        -0.08777183859523656,
        -0.6544482565502662,
        0.03029684368939579,
        -0.07007329930497846,
        0.01910510272268391,
        0.06714871093541955,
        -0.07006241351157752,
        -0.22128998363335686,
        -0.15863993847044486,
        0.19622506207905172,
        0.02967322976117276,
        0.007542528434952232,
        0.11552786601298401,
        0.04990723233305399,
        0.13419397721663487,
        0.05743135135760668,
        0.050721706958642636,
        -0.11114703736577712,
        0.060451575011926176,
        -0.044222385744910206,
        -0.018760639871506456,
        0.12839421331120876,
        -0.08911296287857529,
        0.016829860369923497,
        -0.11423171679693409,
        0.18305138983936156,
        -0.025377951502999315,
        -0.5348409547485372,
        -0.12989025717552335,
        0.39873880453967525,
        -0.0028495796426243774,
        -0.032838084236195345,
        0.1919533725446782,
        -0.10794999283473682,
        -0.02233384505179937,
        -0.01875458244667108,
        -0.1373635206836242,
        0.11620066684316999,
        0.007447864931291503,
        -0.21526801911961832
      ],
      [
        -0.11636830910351395,
        -0.003927933232006955,
        0.15276966018326363,
        -0.03673986406178044,
        -0.03515959758267339,
        0.14011569233739055,
        0.04688652693951332,
        0.1506422684297492,
        -0.0013250704305930513,
        0.12467821978859404,
        0.04615435596994684,
        0.030589950418068373,
        0.017162264185229197,
        -0.06325034020651861,
        0.1413381982252223,
        -0.006266730816044188,
        0.008249074917332783,
        0.1205183640610603,
        0.06615912279188291,
        0.026902622858610153,
        0.1437817574613541,
        0.008145281701216124,
        -0.023318542040701176,
        -0.05124441235141675,
        -0.1176547514203119,
        -0.1175238480945438,
        0.058931786452481184,
        0.03436581565320174,
        -0.05627875440460324,
        -0.07662509019790618,
        0.09144358318662538,
        -0.08858794114534688,
        -0.10749954098107677,
        0.03375893306487578,
        0.0831455260128391,
        -0.004927427022679523,
        -0.07608391432602048,
        0.20792781590868298,
        0.08747658554787727,
        0.11526590866041099,
        0.05968563386989678,
        -0.055624721299485494,
        0.10962644844230855,
        -0.07398376013914651,
        -0.007744889750552302,
        0.05336852444191368,
        0.02718068791298954,
        0.02864560334196708,
        0.07756958328006636,
        0.02723418839490061,
        0.11737545081566961,
        0.005387139435450912,
        0.159807987776056,
        -0.052984072404603,
        0.019777462332145848,
        0.10383670575326479,
        0.06325125805919544,
        -0.09407095072529098,
        -0.12600634710517863,
        0.024483588249110635,
        -0.021695818099043376,
        -0.10174074160196135,
        0.10479123588671173,
        0.1101534026712581
      ],
      [
        -0.05132078952267234,
        0.03448531772666041,
        0.10102215471579659,
        -0.054748323962707145,
        0.10015184349815257,
        -0.06494212179388613,
        -0.056626204674691476,
        -0.05216759705043251,
        0.1057250549166188,
        0.067756108762724,
        -0.0344705373325396,
        -0.09477174932785806,
        -0.05482660083047716,
        -0.048156764467390804,
        0.0871612823753388,
        -0.08009004587381646,
        -0.04168355756677009,
        -0.0925833961355189,
        -0.0779721859838359,
        -0.08630735925053311,
        0.05753235054656558,
        0.036976840640494085,
        -0.04776248700836824,
        0.03288890793369064,
        0.05641398099694519,
        -0.1256743563915603,
        -0.005378493600652318,
        0.04417372665801756,
        -0.053057749751479776,
        -0.11301727013801306,
        0.06646870865928717,
        -0.06295720905243403,
        0.028439478384263164,
        -0.00044204702315001364,
        0.006142672763900166,
        -0.007613775853651258,
        0.04110489485834274,
        0.11685828480573916,
        0.08885975344840615,
        -0.08340491072917357,
        0.026205468359296987,
        0.017054259967444776,
        -0.09876540746628466,
        0.026925506716950074,
        0.01144675469508525,
        0.04081281566948215,
        -0.08330336357416189,
        0.018563348001355208,
        -0.08586022242348638,
        -0.06677512957257922,
        0.06765754331935056,
        0.07644330421888278,
        -0.09536212778004381,
        -0.05842302018521126,
        0.05474261766346717,
        -0.12001322953518284,
        0.02598334447555012,
        0.11223419851401945,
        -0.09588742281498737,
        0.10384881833097158,
        -0.13426222729829115,
        -0.12435939614954918,
        -0.1284585218439786,
        -0.08140461544793105
      ],
      [
        0.057853129514966566,
        0.07320978452775162,
        -0.9695512206021496,
        0.09622158188028321,
        -0.3380244943258149,
        0.05025231526749577,
        0.7521164592025026,
        0.08333437573082508,
        0.05645971769540409,
        0.3593025654277417,
        -1.097257947990093,
        0.10117783455201664,
        -0.06615464894489759,
        -0.13843437825329644,
        -0.6788988020322126,
        -0.1722544136608277,
        0.05530986276070066,
        -0.3032969899386604,
        -0.25579020053896556,
        0.0722415537534427,
        0.026988277406545642,
        -0.7193446695440188,
        -0.0010156282338913472,
        -0.0714044794355325,
        -0.31457110178660985,
        -0.2860683595978649,
        0.09319381890229624,
        -0.10677572558639978,
        -0.571129959644292,
        0.3078644058474602,
        0.010033373089726233,
        0.0677665729239612,
        -0.4946182859810942,
        0.19562861137415485,
        0.9956909377785933,
        0.22705449964293403,
        0.06561353891628023,
        -0.34297469376987016,
        0.09639723139223569,
        0.24989861777257733,
        -0.315048577979077,
        0.3183963250185602,
        -0.05836358753497196,
        -0.08655839629402368,
        -0.04086541443697796,
        0.23139570381248475,
        0.4097994418588034,
        -0.5956493803208993,
        -0.1181871839598969,
        0.3479713057056162,
        -0.010095483239431005,
        -0.4830940865194402,
        -0.3225416153868322,
        0.5309399314748932,
        -0.04229855102200505,
        -1.18657691965305,
        -0.20114828267081084,
        -0.8264309024391295,
        0.06504411599159206,
        -0.2929296806414109,
        -0.05662587954941959,
        0.14668565561218225,
        0.09077671340484751,
        0.09528316499497626
      ],
      [
        0.11497429126594623,
        -0.10401242237227995,
        -0.009379134882493978,
        0.06544351556144226,
        0.1635615221849336,
        -0.169011384984624,
        -0.01657994776951132,
        -0.1384502423583506,
        -0.08806974072080466,
        -0.1480846572721892,
        0.13597303115980428,
        0.024511631935264046,
        -0.09532772687584104,
        0.06747264873803106,
        0.10018737602534519,
        -0.020533530251907746,
        -0.06701517937160066,
        0.08936392539700998,
        0.07314290890974223,
        -0.023232332903851387,
        -0.3662310422012739,
        -0.08800126053739432,
        0.07778551101446474,
        -0.13944067959187462,
        -0.007181134281407197,
        -0.07154511079371997,
        -0.0633506909410831,
        0.0870219177259687,
        0.08133957582810056,
        0.11227724249945426,
        -0.06591086884673446,
        -0.12131402930229805,
        -0.10679271126054843,
        -0.03045977636468777,
        -0.05720006009609468,
        -0.0007854232421578539,
        -0.08483406932646716,
        0.11911471964244659,
        0.06085591535975565,
        -0.041209013837098275,
        -0.026365241286974,
        0.020256813237438737,
        -0.07077380140951306,
        -0.039850494802778594,
        0.00033586337764200685,
        0.02362282208132237,
        0.002439384674403222,
        -0.03590924694885577,
        0.013009564083957686,
        -0.03938027555907196,
        -0.051409075991252405,
        0.04874575310919546,
        0.06877730667195105,
        -0.06329761466354238,
        0.07703765474696819,
        0.011083058067131411,
        -0.06439880876324823,
        0.05494050287554768,
        -0.06443168163024095,
        -0.07586513951088737,
        0.07387471755376371,
        0.029641512692236832,
        -0.10653064743421509,
        -0.05266486542703814
      ],
      [
        0.034502936519004414,
        0.02647929916712401,
        -0.027039898806736865,
